{"learner":{"attributes":{"scikit_learn":"{\"_estimator_type\": \"regressor\"}"},"feature_names":["lag1_total","roll4_total","roll8_total","roll4_prev4_ratio","lag_night_share","lag_weekend_share","is_festival_season","mix_Assault","mix_Burglary","mix_Chain Snatching","mix_Cybercrime","mix_Robbery","mix_Theft","mix_Vehicle Theft"],"feature_types":["float","float","float","float","float","float","int","float","float","float","float","float","float","float"],"gradient_booster":{"model":{"cats":{"enc":[],"feature_segments":[],"sorted_idx":[]},"gbtree_model_param":{"num_parallel_tree":"1","num_trees":"200"},"iteration_indptr":[0,1,2,3,4,5,6,7,8,9,10,11,12,13,14,15,16,17,18,19,20,21,22,23,24,25,26,27,28,29,30,31,32,33,34,35,36,37,38,39,40,41,42,43,44,45,46,47,48,49,50,51,52,53,54,55,56,57,58,59,60,61,62,63,64,65,66,67,68,69,70,71,72,73,74,75,76,77,78,79,80,81,82,83,84,85,86,87,88,89,90,91,92,93,94,95,96,97,98,99,100,101,102,103,104,105,106,107,108,109,110,111,112,113,114,115,116,117,118,119,120,121,122,123,124,125,126,127,128,129,130,131,132,133,134,135,136,137,138,139,140,141,142,143,144,145,146,147,148,149,150,151,152,153,154,155,156,157,158,159,160,161,162,163,164,165,166,167,168,169,170,171,172,173,174,175,176,177,178,179,180,181,182,183,184,185,186,187,188,189,190,191,192,193,194,195,196,197,198,199,200],"tree_info":[0,0,0,0,0,0,0,0,0,0,0,0,0,0,0,0,0,0,0,0,0,0,0,0,0,0,0,0,0,0,0,0,0,0,0,0,0,0,0,0,0,0,0,0,0,0,0,0,0,0,0,0,0,0,0,0,0,0,0,0,0,0,0,0,0,0,0,0,0,0,0,0,0,0,0,0,0,0,0,0,0,0,0,0,0,0,0,0,0,0,0,0,0,0,0,0,0,0,0,0,0,0,0,0,0,0,0,0,0,0,0,0,0,0,0,0,0,0,0,0,0,0,0,0,0,0,0,0,0,0,0,0,0,0,0,0,0,0,0,0,0,0,0,0,0,0,0,0,0,0,0,0,0,0,0,0,0,0,0,0,0,0,0,0,0,0,0,0,0,0,0,0,0,0,0,0,0,0,0,0,0,0,0,0,0,0,0,0,0,0,0,0,0,0,0,0,0,0,0,0],"trees":[{"base_weights":[3.6024122E-7,-8.1571436E-1,5.396267E0,-1.3743607E0,3.7069705E0,4.0415063E0,1.0393371E1,-1.7024094E0,-4.3661512E-2,2.7681143E0,7.38145E0,-9.546329E-1,4.5841637E0,1.739865E-1,1.1132481E1,-8.796025E-2,2.9065317E-1,-4.0540524E-2,1.3793077E-1,1.9119976E-1,-1.9058879E-1,4.7210726E-1,7.0734814E-2,1.08234815E-1,-1.9176519E-1,8.024777E-2,2.758407E-1,2.0731984E-1,5.975648E-1],"categories":[],"categories_nodes":[],"categories_segments":[],"categories_sizes":[],"default_left":[0,0,0,0,0,0,0,0,0,0,0,0,0,0,0,0,0,0,0,0,0,0,0,0,0,0,0,0,0],"id":0,"left_children":[1,3,5,7,9,11,13,15,17,19,21,23,25,-1,27,-1,-1,-1,-1,-1,-1,-1,-1,-1,-1,-1,-1,-1,-1],"loss_changes":[2.6146777E3,1.3088107E3,4.8604565E2,2.0073138E2,1.7620636E2,1.7518115E2,4.3020996E1,1.6773267E2,2.0001497E2,3.411125E2,1.2189453E2,7.120259E1,1.4952356E2,0E0,3.0529419E1,0E0,0E0,0E0,0E0,0E0,0E0,0E0,0E0,0E0,0E0,0E0,0E0,0E0,0E0],"parents":[2147483647,0,0,1,1,2,2,3,3,4,4,5,5,6,6,7,7,8,8,9,9,10,10,11,11,12,12,14,14],"right_children":[2,4,6,8,10,12,14,16,18,20,22,24,26,-1,28,-1,-1,-1,-1,-1,-1,-1,-1,-1,-1,-1,-1,-1,-1],"split_conditions":[2.3952095E-1,1E0,3.375E1,3.661567E-1,1.5025906E-1,2.0588236E-1,2.3487544E-1,1.14832535E-1,8.3333336E-2,1.4285715E-1,3.2E1,2.7625E1,1.0047847E-1,1.739865E-1,1.8049292E-1,-8.796025E-2,2.9065317E-1,-4.0540524E-2,1.3793077E-1,1.9119976E-1,-1.9058879E-1,4.7210726E-1,7.0734814E-2,1.08234815E-1,-1.9176519E-1,8.024777E-2,2.758407E-1,2.0731984E-1,5.975648E-1],"split_indices":[13,6,1,5,7,12,12,11,11,7,0,2,8,0,4,0,0,0,0,0,0,0,0,0,0,0,0,0,0],"split_type":[0,0,0,0,0,0,0,0,0,0,0,0,0,0,0,0,0,0,0,0,0,0,0,0,0,0,0,0,0],"sum_hessian":[5.92E2,5.15E2,7.7E1,4.59E2,5.6E1,6.2E1,1.5E1,3.68E2,9.1E1,4.6E1,1E1,6E0,5.6E1,2E0,1.3E1,3.66E2,2E0,7.2E1,1.9E1,4E1,6E0,7E0,3E0,3E0,3E0,1.4E1,4.2E1,2E0,1.1E1],"tree_param":{"num_deleted":"0","num_feature":"14","num_nodes":"29","size_leaf_vector":"1"}},{"base_weights":[3.5337606E-3,-7.732932E-1,5.1424975E0,-1.3049895E0,3.5311558E0,3.8437572E0,9.934881E0,-2.1237676E0,-7.80641E-1,2.629721E0,7.061727E0,-9.1883415E-1,4.3612022E0,3.363739E0,1.0633348E1,6.4194076E-2,-1.2563609E-1,9.343677E-2,-5.5765E-2,1.8187292E-1,-1.8242073E-1,4.5145258E-1,6.808229E-2,1.0417602E-1,-1.8457401E-1,7.650287E-2,2.623694E-1,2.0114021E-1,5.1140215E-2,2.004092E-1,5.701764E-1],"categories":[],"categories_nodes":[],"categories_segments":[],"categories_sizes":[],"default_left":[0,0,0,0,0,0,0,0,0,0,0,0,0,0,0,0,0,0,0,0,0,0,0,0,0,0,0,0,0,0,0],"id":1,"left_children":[1,3,5,7,9,11,13,15,17,19,21,23,25,27,29,-1,-1,-1,-1,-1,-1,-1,-1,-1,-1,-1,-1,-1,-1,-1,-1],"loss_changes":[2.3712832E3,1.1855564E3,4.472898E2,1.9583167E2,1.6283673E2,1.5926312E2,3.7667847E1,2.4047583E2,2.5211601E2,3.1062634E2,1.11058655E2,6.596254E1,1.3497949E2,5.1394653E-1,2.5728516E1,0E0,0E0,0E0,0E0,0E0,0E0,0E0,0E0,0E0,0E0,0E0,0E0,0E0,0E0,0E0,0E0],"parents":[2147483647,0,0,1,1,2,2,3,3,4,4,5,5,6,6,7,7,8,8,9,9,10,10,11,11,12,12,13,13,14,14],"right_children":[2,4,6,8,10,12,14,16,18,20,22,24,26,28,30,-1,-1,-1,-1,-1,-1,-1,-1,-1,-1,-1,-1,-1,-1,-1,-1],"split_conditions":[2.3952095E-1,1E0,3.375E1,1.2935324E-1,1.5025906E-1,2.0588236E-1,2.3487544E-1,1.19617224E-1,1.3425925E-1,1.4285715E-1,3.2E1,2.7625E1,1.0047847E-1,3.6E1,1.8049292E-1,6.4194076E-2,-1.2563609E-1,9.343677E-2,-5.5765E-2,1.8187292E-1,-1.8242073E-1,4.5145258E-1,6.808229E-2,1.0417602E-1,-1.8457401E-1,7.650287E-2,2.623694E-1,2.0114021E-1,5.1140215E-2,2.004092E-1,5.701764E-1],"split_indices":[13,6,1,8,7,12,12,7,13,7,0,2,8,0,4,0,0,0,0,0,0,0,0,0,0,0,0,0,0,0,0],"split_type":[0,0,0,0,0,0,0,0,0,0,0,0,0,0,0,0,0,0,0,0,0,0,0,0,0,0,0,0,0,0,0],"sum_hessian":[5.92E2,5.15E2,7.7E1,4.59E2,5.6E1,6.2E1,1.5E1,1.78E2,2.81E2,4.6E1,1E1,6E0,5.6E1,2E0,1.3E1,1.8E1,1.6E2,3.1E1,2.5E2,4E1,6E0,7E0,3E0,3E0,3E0,1.4E1,4.2E1,1E0,1E0,2E0,1.1E1],"tree_param":{"num_deleted":"0","num_feature":"14","num_nodes":"31","size_leaf_vector":"1"}},{"base_weights":[6.352719E-3,-7.3366904E-1,4.9017997E0,-1.239792E0,3.3637028E0,3.655672E0,9.502066E0,-1.6664572E0,-3.1075543E-1,2.4982228E0,6.7558713E0,2.150033E0,5.346765E0,3.279646E0,1.0156723E1,-1.918227E-2,-1.0157044E-1,2.153776E-1,-3.2279495E-2,1.7300104E-1,-1.746027E-1,4.3526086E-1,5.8410622E-2,-1.7765248E-1,1.3978648E-1,3.2082844E-1,8.821043E-3,1.9611172E-1,4.9861718E-2,2.9816076E-1,5.911935E-1],"categories":[],"categories_nodes":[],"categories_segments":[],"categories_sizes":[],"default_left":[0,0,0,0,0,0,0,0,0,0,0,0,0,0,0,0,0,0,0,0,0,0,0,0,0,0,0,0,0,0,0],"id":2,"left_children":[1,3,5,7,9,11,13,15,17,19,21,23,25,27,29,-1,-1,-1,-1,-1,-1,-1,-1,-1,-1,-1,-1,-1,-1,-1,-1],"loss_changes":[2.1518796E3,1.0742375E3,4.1240015E2,1.8182037E2,1.50466E2,1.4891333E2,3.1866333E1,1.466925E2,2.2855067E2,2.8287012E2,1.0964548E2,1.3881953E2,1.5927435E2,4.8856735E-1,2.7368286E1,0E0,0E0,0E0,0E0,0E0,0E0,0E0,0E0,0E0,0E0,0E0,0E0,0E0,0E0,0E0,0E0],"parents":[2147483647,0,0,1,1,2,2,3,3,4,4,5,5,6,6,7,7,8,8,9,9,10,10,11,11,12,12,13,13,14,14],"right_children":[2,4,6,8,10,12,14,16,18,20,22,24,26,28,30,-1,-1,-1,-1,-1,-1,-1,-1,-1,-1,-1,-1,-1,-1,-1,-1],"split_conditions":[2.3952095E-1,1E0,3.375E1,1.4659686E-1,1.5025906E-1,1.21323526E-1,2.3487544E-1,1.2315271E-1,6.363636E-2,1.4285715E-1,1.4249082E-1,2.0588236E-1,8.62069E-2,3.6E1,2.026188E-1,-1.918227E-2,-1.0157044E-1,2.153776E-1,-3.2279495E-2,1.7300104E-1,-1.746027E-1,4.3526086E-1,5.8410622E-2,-1.7765248E-1,1.3978648E-1,3.2082844E-1,8.821043E-3,1.9611172E-1,4.9861718E-2,2.9816076E-1,5.911935E-1],"split_indices":[13,6,1,8,7,8,12,7,9,7,4,12,9,0,4,0,0,0,0,0,0,0,0,0,0,0,0,0,0,0,0],"split_type":[0,0,0,0,0,0,0,0,0,0,0,0,0,0,0,0,0,0,0,0,0,0,0,0,0,0,0,0,0,0,0],"sum_hessian":[5.92E2,5.15E2,7.7E1,4.59E2,5.6E1,6.2E1,1.5E1,3.14E2,1.45E2,4.6E1,1E1,3.4E1,2.8E1,2E0,1.3E1,7E1,2.44E2,9E0,1.36E2,4E1,6E0,7E0,3E0,3E0,3.1E1,2.3E1,5E0,1E0,1E0,5E0,8E0],"tree_param":{"num_deleted":"0","num_feature":"14","num_nodes":"31","size_leaf_vector":"1"}},{"base_weights":[9.376687E-3,-6.959111E-1,4.675007E0,-1.1776669E0,3.204151E0,3.4775205E0,9.09792E0,-1.4817308E0,5.469496E-2,3.694416E0,-1.578838E0,2.04145E0,5.0907946E0,4.013406E0,9.962546E0,-7.677725E-2,2.7977192E-1,-5.609982E-2,8.781808E-2,2.2012658E-1,-3.7526857E-2,-1.3118546E-1,9.113794E-2,-1.7099051E-1,1.3301562E-1,3.0545548E-1,8.45348E-3,2.3515026E-1,4.861517E-2,2.8573743E-1,5.951538E-1],"categories":[],"categories_nodes":[],"categories_segments":[],"categories_sizes":[],"default_left":[0,0,0,0,0,0,0,0,0,0,0,0,0,0,0,0,0,0,0,0,0,0,0,0,0,0,0,0,0,0,0],"id":3,"left_children":[1,3,5,7,9,11,13,15,17,19,21,23,25,27,29,-1,-1,-1,-1,-1,-1,-1,-1,-1,-1,-1,-1,-1,-1,-1,-1],"loss_changes":[1.9545863E3,9.732741E2,3.8147937E2,1.724508E2,1.3949408E2,1.3556427E2,3.035559E1,1.4912628E2,1.861856E2,1.6697638E2,2.6107765E1,1.2738963E2,1.4431122E2,3.8158264E0,3.9135498E1,0E0,0E0,0E0,0E0,0E0,0E0,0E0,0E0,0E0,0E0,0E0,0E0,0E0,0E0,0E0,0E0],"parents":[2147483647,0,0,1,1,2,2,3,3,4,4,5,5,6,6,7,7,8,8,9,9,10,10,11,11,12,12,13,13,14,14],"right_children":[2,4,6,8,10,12,14,16,18,20,22,24,26,28,30,-1,-1,-1,-1,-1,-1,-1,-1,-1,-1,-1,-1,-1,-1,-1,-1],"split_conditions":[2.3952095E-1,1E0,3.375E1,3.661567E-1,3.8E1,1.21323526E-1,2.356021E-1,1.14832535E-1,7.772021E-2,7.065217E-2,4.2E1,2.0588236E-1,8.62069E-2,3.7E1,2.026188E-1,-7.677725E-2,2.7977192E-1,-5.609982E-2,8.781808E-2,2.2012658E-1,-3.7526857E-2,-1.3118546E-1,9.113794E-2,-1.7099051E-1,1.3301562E-1,3.0545548E-1,8.45348E-3,2.3515026E-1,4.861517E-2,2.8573743E-1,5.951538E-1],"split_indices":[13,6,1,5,0,8,12,11,11,11,0,12,9,1,4,0,0,0,0,0,0,0,0,0,0,0,0,0,0,0,0],"split_type":[0,0,0,0,0,0,0,0,0,0,0,0,0,0,0,0,0,0,0,0,0,0,0,0,0,0,0,0,0,0,0],"sum_hessian":[5.92E2,5.15E2,7.7E1,4.59E2,5.6E1,6.2E1,1.5E1,3.68E2,9.1E1,5.1E1,5E0,3.4E1,2.8E1,3E0,1.2E1,3.66E2,2E0,5.4E1,3.7E1,4.4E1,7E0,4E0,1E0,3E0,3.1E1,2.3E1,5E0,2E0,1E0,5E0,7E0],"tree_param":{"num_deleted":"0","num_feature":"14","num_nodes":"31","size_leaf_vector":"1"}},{"base_weights":[1.1972817E-2,-6.6038513E-1,4.4597254E0,-1.118274E0,3.046444E0,3.3080246E0,8.715816E0,-1.865076E0,-6.402746E-1,2.2261076E0,6.2745676E0,1.9382933E0,4.847079E0,3.8836775E0,9.53218E0,6.5156765E-2,-1.1136899E-1,9.189021E-2,-4.7682703E-2,2.2716048E-1,-9.187428E-3,4.0773898E-1,4.7275115E-2,-1.645784E-1,1.2657271E-1,2.9081902E-1,8.1012575E-3,2.2731197E-1,4.7399808E-2,2.738317E-1,5.691158E-1],"categories":[],"categories_nodes":[],"categories_segments":[],"categories_sizes":[],"default_left":[0,0,0,0,0,0,0,0,0,0,0,0,0,0,0,0,0,0,0,0,0,0,0,0,0,0,0,0,0,0,0],"id":4,"left_children":[1,3,5,7,9,11,13,15,17,19,21,23,25,27,29,-1,-1,-1,-1,-1,-1,-1,-1,-1,-1,-1,-1,-1,-1,-1,-1],"loss_changes":[1.7763009E3,8.792217E2,3.5350378E2,1.6301239E2,1.369765E2,1.2341461E2,2.6096558E1,2.0836871E2,2.207479E2,2.6327728E2,1.0250717E2,1.16907684E2,1.3075336E2,3.4704628E0,3.520642E1,0E0,0E0,0E0,0E0,0E0,0E0,0E0,0E0,0E0,0E0,0E0,0E0,0E0,0E0,0E0,0E0],"parents":[2147483647,0,0,1,1,2,2,3,3,4,4,5,5,6,6,7,7,8,8,9,9,10,10,11,11,12,12,13,13,14,14],"right_children":[2,4,6,8,10,12,14,16,18,20,22,24,26,28,30,-1,-1,-1,-1,-1,-1,-1,-1,-1,-1,-1,-1,-1,-1,-1,-1],"split_conditions":[2.3952095E-1,1E0,3.375E1,1.2935324E-1,1.5025906E-1,1.21323526E-1,2.356021E-1,1.19617224E-1,1.3425925E-1,1.1235955E-1,3.2E1,2.0588236E-1,8.62069E-2,3.7E1,2.026188E-1,6.5156765E-2,-1.1136899E-1,9.189021E-2,-4.7682703E-2,2.2716048E-1,-9.187428E-3,4.0773898E-1,4.7275115E-2,-1.645784E-1,1.2657271E-1,2.9081902E-1,8.1012575E-3,2.2731197E-1,4.7399808E-2,2.738317E-1,5.691158E-1],"split_indices":[13,6,1,8,7,8,12,7,13,7,0,12,9,1,4,0,0,0,0,0,0,0,0,0,0,0,0,0,0,0,0],"split_type":[0,0,0,0,0,0,0,0,0,0,0,0,0,0,0,0,0,0,0,0,0,0,0,0,0,0,0,0,0,0,0],"sum_hessian":[5.92E2,5.15E2,7.7E1,4.59E2,5.6E1,6.2E1,1.5E1,1.78E2,2.81E2,4.6E1,1E1,3.4E1,2.8E1,3E0,1.2E1,1.8E1,1.6E2,3.1E1,2.5E2,2.3E1,2.3E1,7E0,3E0,3E0,3.1E1,2.3E1,5E0,2E0,1E0,5E0,7E0],"tree_param":{"num_deleted":"0","num_feature":"14","num_nodes":"31","size_leaf_vector":"1"}},{"base_weights":[1.4829719E-2,-6.260662E-1,4.2544127E0,-1.0623654E0,2.9059281E0,2.6925516E0,7.1048713E0,-1.4981059E0,-2.960896E-1,2.1194396E0,6.0022035E0,-8.0269134E-1,3.1659026E0,8.628465E0,3.6519158E0,-7.82246E-2,2.720356E-1,-3.4581204E-3,-2.7527672E-1,2.1627565E-1,-8.747185E-3,3.94061E-1,3.718102E-2,8.817124E-2,-1.5840673E-1,2.7232504E-2,2.0910063E-1,2.3086312E-1,5.124647E-1,-5.859976E-2,2.1590638E-1],"categories":[],"categories_nodes":[],"categories_segments":[],"categories_sizes":[],"default_left":[0,0,0,0,0,0,0,0,0,0,0,0,0,0,0,0,0,0,0,0,0,0,0,0,0,0,0,0,0,0,0],"id":5,"left_children":[1,3,5,7,9,11,13,15,17,19,21,23,25,27,29,-1,-1,-1,-1,-1,-1,-1,-1,-1,-1,-1,-1,-1,-1,-1,-1],"loss_changes":[1.6139227E3,7.982464E2,3.2812732E2,1.5314923E2,1.2608423E2,8.8574036E1,1.1053381E2,1.4347968E2,1.9822289E2,2.386509E2,1.0282999E2,4.8076782E1,1.202424E2,6.970288E1,3.7198288E1,0E0,0E0,0E0,0E0,0E0,0E0,0E0,0E0,0E0,0E0,0E0,0E0,0E0,0E0,0E0,0E0],"parents":[2147483647,0,0,1,1,2,2,3,3,4,4,5,5,6,6,7,7,8,8,9,9,10,10,11,11,12,12,13,13,14,14],"right_children":[2,4,6,8,10,12,14,16,18,20,22,24,26,28,30,-1,-1,-1,-1,-1,-1,-1,-1,-1,-1,-1,-1,-1,-1,-1,-1],"split_conditions":[2.3952095E-1,1E0,3.2E1,3.4799433E-1,1.5025906E-1,2.0588236E-1,8.8E-2,1.14832535E-1,2.95E1,1.1235955E-1,1.4249082E-1,2.7625E1,1.0047847E-1,2.356021E-1,7.7678573E-1,-7.82246E-2,2.720356E-1,-3.4581204E-3,-2.7527672E-1,2.1627565E-1,-8.747185E-3,3.94061E-1,3.718102E-2,8.817124E-2,-1.5840673E-1,2.7232504E-2,2.0910063E-1,2.3086312E-1,5.124647E-1,-5.859976E-2,2.1590638E-1],"split_indices":[13,6,1,5,7,12,10,11,1,7,4,2,8,12,3,0,0,0,0,0,0,0,0,0,0,0,0,0,0,0,0],"split_type":[0,0,0,0,0,0,0,0,0,0,0,0,0,0,0,0,0,0,0,0,0,0,0,0,0,0,0,0,0,0,0],"sum_hessian":[5.92E2,5.15E2,7.7E1,4.59E2,5.6E1,5.1E1,2.6E1,2.92E2,1.67E2,4.6E1,1E1,6E0,4.5E1,1.7E1,9E0,2.9E2,2E0,1.61E2,6E0,2.3E1,2.3E1,7E0,3E0,3E0,3E0,1.3E1,3.2E1,6E0,1.1E1,1E0,8E0],"tree_param":{"num_deleted":"0","num_feature":"14","num_nodes":"31","size_leaf_vector":"1"}},{"base_weights":[1.6820814E-2,-5.9368986E-1,4.055368E0,-1.0094321E0,2.7718382E0,2.9945745E0,7.978782E0,-1.3952981E0,-1.699988E-1,3.7675605E0,5.821005E-1,1.734779E0,4.4117565E0,3.5887632E0,8.715805E0,-1.1951929E-1,-4.8061598E-2,2.0718972E-1,-2.4181668E-2,2.3908173E-1,-3.798398E-2,1.3433538E-1,-7.9035826E-2,-1.5246646E-1,1.1392903E-1,2.6571923E-1,3.2975357E-3,2.1228874E-1,4.044323E-2,2.4848326E-1,5.217967E-1],"categories":[],"categories_nodes":[],"categories_segments":[],"categories_sizes":[],"default_left":[0,0,0,0,0,0,0,0,0,0,0,0,0,0,0,0,0,0,0,0,0,0,0,0,0,0,0,0,0,0,0],"id":6,"left_children":[1,3,5,7,9,11,13,15,17,19,21,23,25,27,29,-1,-1,-1,-1,-1,-1,-1,-1,-1,-1,-1,-1,-1,-1,-1,-1],"loss_changes":[1.4644944E3,7.24781E2,3.0073767E2,1.487609E2,1.2208807E2,1.0482428E2,2.0489624E1,1.3376141E2,1.9953545E2,1.8267975E2,9.073264E1,9.8004364E1,1.1340625E2,3.871441E0,3.190686E1,0E0,0E0,0E0,0E0,0E0,0E0,0E0,0E0,0E0,0E0,0E0,0E0,0E0,0E0,0E0,0E0],"parents":[2147483647,0,0,1,1,2,2,3,3,4,4,5,5,6,6,7,7,8,8,9,9,10,10,11,11,12,12,13,13,14,14],"right_children":[2,4,6,8,10,12,14,16,18,20,22,24,26,28,30,-1,-1,-1,-1,-1,-1,-1,-1,-1,-1,-1,-1,-1,-1,-1,-1],"split_conditions":[2.3952095E-1,1E0,3.375E1,1.4659686E-1,3.05E1,1.21323526E-1,2.356021E-1,8.938547E-2,6.363636E-2,7.065217E-2,1.3953489E-1,2.0588236E-1,8.62069E-2,3.7E1,2.026188E-1,-1.1951929E-1,-4.8061598E-2,2.0718972E-1,-2.4181668E-2,2.3908173E-1,-3.798398E-2,1.3433538E-1,-7.9035826E-2,-1.5246646E-1,1.1392903E-1,2.6571923E-1,3.2975357E-3,2.1228874E-1,4.044323E-2,2.4848326E-1,5.217967E-1],"split_indices":[13,6,1,8,1,8,12,10,9,11,13,12,9,1,4,0,0,0,0,0,0,0,0,0,0,0,0,0,0,0,0],"split_type":[0,0,0,0,0,0,0,0,0,0,0,0,0,0,0,0,0,0,0,0,0,0,0,0,0,0,0,0,0,0,0],"sum_hessian":[5.92E2,5.15E2,7.7E1,4.59E2,5.6E1,6.2E1,1.5E1,3.14E2,1.45E2,3.8E1,1.8E1,3.4E1,2.8E1,3E0,1.2E1,9.4E1,2.2E2,9E0,1.36E2,3.1E1,7E0,9E0,9E0,3E0,3.1E1,2.3E1,5E0,2E0,1E0,5E0,7E0],"tree_param":{"num_deleted":"0","num_feature":"14","num_nodes":"31","size_leaf_vector":"1"}},{"base_weights":[1.855195E-2,-5.634786E-1,3.86867E0,-9.589269E-1,2.6377444E0,2.4265542E0,6.5027943E0,-8.9836615E-1,-6.2902827E0,3.0838103E0,-1.6677834E0,2.8575397E0,-7.5228745E-1,7.922059E0,3.2978387E0,-6.7501426E-2,-5.0592422E-3,-3.4814832E-1,-8.998876E-2,1.8463297E-1,-3.6322143E-2,-1.2985408E-1,7.446771E-2,1.7520359E-1,2.4092017E-2,9.2145346E-2,-1.579705E-1,2.1374018E-1,4.6947265E-1,-5.7217218E-2,1.959282E-1],"categories":[],"categories_nodes":[],"categories_segments":[],"categories_sizes":[],"default_left":[0,0,0,0,0,0,0,0,0,0,0,0,0,0,0,0,0,0,0,0,0,0,0,0,0,0,0,0,0,0,0],"id":7,"left_children":[1,3,5,7,9,11,13,15,17,19,21,23,25,27,29,-1,-1,-1,-1,-1,-1,-1,-1,-1,-1,-1,-1,-1,-1,-1,-1],"loss_changes":[1.3310255E3,6.557433E2,2.8052026E2,1.4286966E2,1.1461438E2,7.339148E1,9.668872E1,1.6404929E2,2.5716705E0,1.23315735E2,2.147151E1,6.8966034E1,4.9551155E1,5.6197144E1,3.2057938E1,0E0,0E0,0E0,0E0,0E0,0E0,0E0,0E0,0E0,0E0,0E0,0E0,0E0,0E0,0E0,0E0],"parents":[2147483647,0,0,1,1,2,2,3,3,4,4,5,5,6,6,7,7,8,8,9,9,10,10,11,11,12,12,13,13,14,14],"right_children":[2,4,6,8,10,12,14,16,18,20,22,24,26,28,30,-1,-1,-1,-1,-1,-1,-1,-1,-1,-1,-1,-1,-1,-1,-1,-1],"split_conditions":[2.3952095E-1,1E0,3.2E1,3.15E1,3.8E1,9.52381E-2,8.8E-2,3.4799433E-1,3.2E1,7.065217E-2,4.2E1,3.377193E-1,2.775E1,2.356021E-1,7.7678573E-1,-6.7501426E-2,-5.0592422E-3,-3.4814832E-1,-8.998876E-2,1.8463297E-1,-3.6322143E-2,-1.2985408E-1,7.446771E-2,1.7520359E-1,2.4092017E-2,9.2145346E-2,-1.579705E-1,2.1374018E-1,4.6947265E-1,-5.7217218E-2,1.959282E-1],"split_indices":[13,6,1,1,0,11,10,5,1,11,0,13,2,12,3,0,0,0,0,0,0,0,0,0,0,0,0,0,0,0,0],"split_type":[0,0,0,0,0,0,0,0,0,0,0,0,0,0,0,0,0,0,0,0,0,0,0,0,0,0,0,0,0,0,0],"sum_hessian":[5.92E2,5.15E2,7.7E1,4.59E2,5.6E1,5.1E1,2.6E1,4.55E2,4E0,5.1E1,5E0,4.5E1,6E0,1.7E1,9E0,2.9E2,1.65E2,3E0,1E0,4.4E1,7E0,4E0,1E0,3.5E1,1E1,3E0,3E0,6E0,1.1E1,1E0,8E0],"tree_param":{"num_deleted":"0","num_feature":"14","num_nodes":"31","size_leaf_vector":"1"}},{"base_weights":[1.8530764E-2,-5.361146E-1,3.6874852E0,-9.12091E-1,2.5074873E0,2.3077934E0,6.208096E0,-7.486895E-1,-2.8158011E0,3.4521618E0,4.3644515E-1,-7.8926605E-1,2.7289155E0,7.5639124E0,3.1468174E0,-7.7635325E-2,-1.1623801E-2,-3.2669984E-2,-2.4709514E-1,2.1904938E-1,-3.473307E-2,1.2053265E-1,-7.907036E-2,7.5929E-2,-1.4498977E-1,1.726872E-2,1.8287103E-1,2.0457993E-1,4.4795513E-1,-5.57868E-2,1.8722026E-1],"categories":[],"categories_nodes":[],"categories_segments":[],"categories_sizes":[],"default_left":[0,0,0,0,0,0,0,0,0,0,0,0,0,0,0,0,0,0,0,0,0,0,0,0,0,0,0,0,0,0,0],"id":8,"left_children":[1,3,5,7,9,11,13,15,17,19,21,23,25,27,29,-1,-1,-1,-1,-1,-1,-1,-1,-1,-1,-1,-1,-1,-1,-1,-1],"loss_changes":[1.2087131E3,5.9275757E2,2.5693115E2,1.4098361E2,1.1001163E2,6.9974335E1,8.8262085E1,1.760329E2,1.6228046E2,1.5325864E2,7.950176E1,3.849901E1,1.0054083E2,5.0544678E1,2.9650269E1,0E0,0E0,0E0,0E0,0E0,0E0,0E0,0E0,0E0,0E0,0E0,0E0,0E0,0E0,0E0,0E0],"parents":[2147483647,0,0,1,1,2,2,3,3,4,4,5,5,6,6,7,7,8,8,9,9,10,10,11,11,12,12,13,13,14,14],"right_children":[2,4,6,8,10,12,14,16,18,20,22,24,26,28,30,-1,-1,-1,-1,-1,-1,-1,-1,-1,-1,-1,-1,-1,-1,-1,-1],"split_conditions":[2.3952095E-1,1E0,3.2E1,1.2282609E0,3.05E1,2.0588236E-1,8.8E-2,1.2935324E-1,1.3661203E-1,7.065217E-2,1.3953489E-1,2.7625E1,1.0047847E-1,2.356021E-1,7.7678573E-1,-7.7635325E-2,-1.1623801E-2,-3.2669984E-2,-2.4709514E-1,2.1904938E-1,-3.473307E-2,1.2053265E-1,-7.907036E-2,7.5929E-2,-1.4498977E-1,1.726872E-2,1.8287103E-1,2.0457993E-1,4.4795513E-1,-5.57868E-2,1.8722026E-1],"split_indices":[13,6,1,3,1,12,10,8,7,11,13,2,8,12,3,0,0,0,0,0,0,0,0,0,0,0,0,0,0,0,0],"split_type":[0,0,0,0,0,0,0,0,0,0,0,0,0,0,0,0,0,0,0,0,0,0,0,0,0,0,0,0,0,0,0],"sum_hessian":[5.92E2,5.15E2,7.7E1,4.59E2,5.6E1,5.1E1,2.6E1,4.24E2,3.5E1,3.8E1,1.8E1,6E0,4.5E1,1.7E1,9E0,1.65E2,2.59E2,1.8E1,1.7E1,3.1E1,7E0,9E0,9E0,3E0,3E0,1.3E1,3.2E1,6E0,1.1E1,1E0,8E0],"tree_param":{"num_deleted":"0","num_feature":"14","num_nodes":"31","size_leaf_vector":"1"}},{"base_weights":[1.8905405E-2,-5.095868E-1,3.5148425E0,-8.672892E-1,2.3860738E0,2.1949244E0,5.926728E0,-1.0187973E0,1.0609826E0,1.6758062E0,5.203938E0,-7.596692E-1,2.5968206E0,7.221969E0,3.0026202E0,-5.312584E-2,2.7572054E-1,2.28407E-2,2.7390218E-1,1.2018144E-1,-1.8491267E-1,4.2987594E-1,1.0182657E-1,7.3081635E-2,-1.395527E-1,1.6466938E-2,1.7400455E-1,1.9581221E-1,4.2742392E-1,-5.4392148E-2,1.7889939E-1],"categories":[],"categories_nodes":[],"categories_segments":[],"categories_sizes":[],"default_left":[0,0,0,0,0,0,0,0,0,0,0,0,0,0,0,0,0,0,0,0,0,0,0,0,0,0,0,0,0,0,0],"id":9,"left_children":[1,3,5,7,9,11,13,15,17,19,21,23,25,27,29,-1,-1,-1,-1,-1,-1,-1,-1,-1,-1,-1,-1,-1,-1,-1,-1],"loss_changes":[1.0974036E3,5.365343E2,2.3530359E2,1.3546933E2,1.05361145E2,6.3719604E1,8.0575745E1,1.27822845E2,8.823163E1,1.9272325E2,1.0072827E2,3.5665726E1,9.0982666E1,4.545337E1,2.7427483E1,0E0,0E0,0E0,0E0,0E0,0E0,0E0,0E0,0E0,0E0,0E0,0E0,0E0,0E0,0E0,0E0],"parents":[2147483647,0,0,1,1,2,2,3,3,4,4,5,5,6,6,7,7,8,8,9,9,10,10,11,11,12,12,13,13,14,14],"right_children":[2,4,6,8,10,12,14,16,18,20,22,24,26,28,30,-1,-1,-1,-1,-1,-1,-1,-1,-1,-1,-1,-1,-1,-1,-1,-1],"split_conditions":[2.3952095E-1,1E0,3.2E1,1.758794E-1,1.5025906E-1,2.0588236E-1,8.8E-2,1.14832535E-1,2.0711483E-1,1.4358975E-1,1.5789473E-1,2.7625E1,1.0047847E-1,2.356021E-1,7.7678573E-1,-5.312584E-2,2.7572054E-1,2.28407E-2,2.7390218E-1,1.2018144E-1,-1.8491267E-1,4.2987594E-1,1.0182657E-1,7.3081635E-2,-1.395527E-1,1.6466938E-2,1.7400455E-1,1.9581221E-1,4.2742392E-1,-5.4392148E-2,1.7889939E-1],"split_indices":[13,6,1,8,7,12,10,11,4,7,7,2,8,12,3,0,0,0,0,0,0,0,0,0,0,0,0,0,0,0,0],"split_type":[0,0,0,0,0,0,0,0,0,0,0,0,0,0,0,0,0,0,0,0,0,0,0,0,0,0,0,0,0,0,0],"sum_hessian":[5.92E2,5.15E2,7.7E1,4.59E2,5.6E1,5.1E1,2.6E1,4.26E2,3.3E1,4.6E1,1E1,6E0,4.5E1,1.7E1,9E0,4.24E2,2E0,3E1,3E0,4.1E1,5E0,4E0,6E0,3E0,3E0,1.3E1,3.2E1,6E0,1.1E1,1E0,8E0],"tree_param":{"num_deleted":"0","num_feature":"14","num_nodes":"31","size_leaf_vector":"1"}},{"base_weights":[2.109315E-2,-4.8219645E-1,3.3502772E0,-8.227961E-1,2.2749622E0,2.4539878E0,6.670024E0,-7.652745E-1,-5.9042063E0,1.590638E0,4.992078E0,1.3716805E0,3.6756003E0,5.2775593E0,5.472426E-1,-5.9590615E-2,-6.469353E-4,-3.2677788E-1,-8.447003E-2,1.766979E-1,-2.0947909E-2,3.3927307E-1,7.864547E-3,1.7510457E-1,5.3948485E-3,2.2432362E-1,-9.024318E-3,7.3192455E-2,2.729159E-1],"categories":[],"categories_nodes":[],"categories_segments":[],"categories_sizes":[],"default_left":[0,0,0,0,0,0,0,0,0,0,0,0,0,0,0,0,0,0,0,0,0,0,0,0,0,0,0,0,0],"id":10,"left_children":[1,3,5,7,9,11,13,15,17,19,21,23,25,27,-1,-1,-1,-1,-1,-1,-1,-1,-1,-1,-1,-1,-1,-1,-1],"loss_changes":[9.952129E2,4.8644092E2,2.1571722E2,1.2993542E2,9.8044525E1,7.8254364E1,3.7478638E1,1.4631482E2,2.2639313E0,1.8502911E2,9.43096E1,9.385537E1,9.1486725E1,1.6608887E0,0E0,0E0,0E0,0E0,0E0,0E0,0E0,0E0,0E0,0E0,0E0,0E0,0E0,0E0,0E0],"parents":[2147483647,0,0,1,1,2,2,3,3,4,4,5,5,6,6,7,7,8,8,9,9,10,10,11,11,12,12,13,13],"right_children":[2,4,6,8,10,12,14,16,18,20,22,24,26,28,-1,-1,-1,-1,-1,-1,-1,-1,-1,-1,-1,-1,-1,-1,-1],"split_conditions":[2.3952095E-1,1E0,3.375E1,3.15E1,1.5025906E-1,1.21323526E-1,1.2820514E-1,3.4799433E-1,3.2E1,1.1235955E-1,1.4249082E-1,2.825E1,8.62069E-2,8.3064514E-1,5.472426E-1,-5.9590615E-2,-6.469353E-4,-3.2677788E-1,-8.447003E-2,1.766979E-1,-2.0947909E-2,3.3927307E-1,7.864547E-3,1.7510457E-1,5.3948485E-3,2.2432362E-1,-9.024318E-3,7.3192455E-2,2.729159E-1],"split_indices":[13,6,1,1,7,8,7,5,1,7,4,1,9,3,0,0,0,0,0,0,0,0,0,0,0,0,0,0,0],"split_type":[0,0,0,0,0,0,0,0,0,0,0,0,0,0,0,0,0,0,0,0,0,0,0,0,0,0,0,0,0],"sum_hessian":[5.92E2,5.15E2,7.7E1,4.59E2,5.6E1,6.2E1,1.5E1,4.55E2,4E0,4.6E1,1E1,3.4E1,2.8E1,1.3E1,2E0,2.9E2,1.65E2,3E0,1E0,2.3E1,2.3E1,7E0,3E0,1.2E1,2.2E1,2.3E1,5E0,1E0,1.2E1],"tree_param":{"num_deleted":"0","num_feature":"14","num_nodes":"29","size_leaf_vector":"1"}},{"base_weights":[2.2265648E-2,-4.7221664E-1,3.1094933E0,-8.014627E-1,2.1700366E0,1.9326828E0,5.4351187E0,-9.4798565E-1,1.0450276E0,3.0472145E0,2.553006E-1,3.060239E0,6.958322E-1,6.6477833E0,2.7088113E0,-4.9530875E-2,2.675338E-1,-8.146228E-2,9.652721E-2,6.896366E-2,2.6793382E-1,1.0261953E-1,-7.8365974E-2,-1.0419232E-1,1.759231E-1,-8.395548E-2,1.1656652E-1,1.8023977E-1,3.9344388E-1,-5.280676E-2,1.6222435E-1],"categories":[],"categories_nodes":[],"categories_segments":[],"categories_sizes":[],"default_left":[0,0,0,0,0,0,0,0,0,0,0,0,0,0,0,0,0,0,0,0,0,0,0,0,0,0,0,0,0,0,0],"id":11,"left_children":[1,3,5,7,9,11,13,15,17,19,21,23,25,27,29,-1,-1,-1,-1,-1,-1,-1,-1,-1,-1,-1,-1,-1,-1,-1,-1],"loss_changes":[9.067299E2,4.471544E2,2.1391492E2,1.24362915E2,9.4957214E1,7.596924E1,7.125696E1,1.18885925E2,8.366118E1,1.4296881E2,6.5449585E1,7.56889E1,1.1267252E2,3.851825E1,2.3594513E1,0E0,0E0,0E0,0E0,0E0,0E0,0E0,0E0,0E0,0E0,0E0,0E0,0E0,0E0,0E0,0E0],"parents":[2147483647,0,0,1,1,2,2,3,3,4,4,5,5,6,6,7,7,8,8,9,9,10,10,11,11,12,12,13,13,14,14],"right_children":[2,4,6,8,10,12,14,16,18,20,22,24,26,28,30,-1,-1,-1,-1,-1,-1,-1,-1,-1,-1,-1,-1,-1,-1,-1,-1],"split_conditions":[2.2826087E-1,1E0,3.2E1,1.758794E-1,3.05E1,1.0096154E0,8.8E-2,1.14832535E-1,1.7060712E-1,2.8E1,1.3953489E-1,8.7628864E-2,1.0652174E0,2.356021E-1,7.7678573E-1,-4.9530875E-2,2.675338E-1,-8.146228E-2,9.652721E-2,6.896366E-2,2.6793382E-1,1.0261953E-1,-7.8365974E-2,-1.0419232E-1,1.759231E-1,-8.395548E-2,1.1656652E-1,1.8023977E-1,3.9344388E-1,-5.280676E-2,1.6222435E-1],"split_indices":[13,6,1,8,1,3,10,11,4,1,13,8,3,12,3,0,0,0,0,0,0,0,0,0,0,0,0,0,0,0,0],"split_type":[0,0,0,0,0,0,0,0,0,0,0,0,0,0,0,0,0,0,0,0,0,0,0,0,0,0,0,0,0,0,0],"sum_hessian":[5.92E2,5.11E2,8.1E1,4.55E2,5.6E1,5.5E1,2.6E1,4.22E2,3.3E1,3.8E1,1.8E1,2.8E1,2.7E1,1.7E1,9E0,4.2E2,2E0,8E0,2.5E1,2.3E1,1.5E1,9E0,9E0,2E0,2.6E1,1.1E1,1.6E1,6E0,1.1E1,1E0,8E0],"tree_param":{"num_deleted":"0","num_feature":"14","num_nodes":"31","size_leaf_vector":"1"}},{"base_weights":[2.348179E-2,-4.3407685E-1,3.050107E0,-7.4315715E-1,2.0678706E0,1.8810471E0,5.188663E0,-5.8930063E-1,-2.5388753E0,1.4150887E0,4.669042E0,-8.467862E-1,2.25526E0,4.234242E0,4.809011E-1,-5.0019015E-2,1.3643756E-2,-2.4757748E-2,-2.2775435E-1,2.7163865E-3,2.0240839E-1,3.9402518E-1,8.540675E-2,-1.1657696E-1,9.55032E-2,8.746699E-3,1.5347406E-1,-5.148659E-2,2.2539409E-1],"categories":[],"categories_nodes":[],"categories_segments":[],"categories_sizes":[],"default_left":[0,0,0,0,0,0,0,0,0,0,0,0,0,0,0,0,0,0,0,0,0,0,0,0,0,0,0,0,0],"id":12,"left_children":[1,3,5,7,9,11,13,15,17,19,21,23,25,27,-1,-1,-1,-1,-1,-1,-1,-1,-1,-1,-1,-1,-1,-1,-1],"loss_changes":[8.225451E2,4.0056097E2,1.8524768E2,1.2559395E2,9.017879E1,5.4990814E1,7.341675E1,1.5090274E2,1.4608514E2,1.6818065E2,9.113623E1,3.310608E1,7.737996E1,3.921225E1,0E0,0E0,0E0,0E0,0E0,0E0,0E0,0E0,0E0,0E0,0E0,0E0,0E0,0E0,0E0],"parents":[2147483647,0,0,1,1,2,2,3,3,4,4,5,5,6,6,7,7,8,8,9,9,10,10,11,11,12,12,13,13],"right_children":[2,4,6,8,10,12,14,16,18,20,22,24,26,28,-1,-1,-1,-1,-1,-1,-1,-1,-1,-1,-1,-1,-1,-1,-1],"split_conditions":[2.3952095E-1,1E0,3.2E1,1.2282609E0,1.5025906E-1,2.0588236E-1,1.2820514E-1,3.5201287E-1,1.3661203E-1,1.742437E-1,1.5789473E-1,1.257485E-1,1.0047847E-1,7.7678573E-1,4.809011E-1,-5.0019015E-2,1.3643756E-2,-2.4757748E-2,-2.2775435E-1,2.7163865E-3,2.0240839E-1,3.9402518E-1,8.540675E-2,-1.1657696E-1,9.55032E-2,8.746699E-3,1.5347406E-1,-5.148659E-2,2.2539409E-1],"split_indices":[13,6,1,3,7,12,7,5,7,4,7,8,8,3,0,0,0,0,0,0,0,0,0,0,0,0,0,0,0],"split_type":[0,0,0,0,0,0,0,0,0,0,0,0,0,0,0,0,0,0,0,0,0,0,0,0,0,0,0,0,0],"sum_hessian":[5.92E2,5.15E2,7.7E1,4.59E2,5.6E1,5.1E1,2.6E1,4.24E2,3.5E1,4.6E1,1E1,6E0,4.5E1,2.3E1,3E0,2.87E2,1.37E2,1.8E1,1.7E1,3.1E1,1.5E1,4E0,6E0,4E0,2E0,1.3E1,3.2E1,1E0,2.2E1],"tree_param":{"num_deleted":"0","num_feature":"14","num_nodes":"29","size_leaf_vector":"1"}},{"base_weights":[2.4316961E-2,-4.2506638E-1,2.829926E0,-7.243284E-1,1.9764872E0,2.062963E0,5.8647137E0,-6.693087E-1,-5.553244E0,2.3650215E0,-1.7202238E0,1.0174252E0,3.2443159E0,4.5602884E0,4.9985632E-1,5.2105267E-2,-4.1899737E-2,-1.2199809E-1,-3.4077224E-1,2.9232427E-1,8.9191E-2,-1.24759234E-1,5.3864527E-2,9.027032E-2,-6.453323E-2,2.0281385E-1,-5.9509277E-3,6.167221E-2,2.3606597E-1],"categories":[],"categories_nodes":[],"categories_segments":[],"categories_sizes":[],"default_left":[0,0,0,0,0,0,0,0,0,0,0,0,0,0,0,0,0,0,0,0,0,0,0,0,0,0,0,0,0],"id":13,"left_children":[1,3,5,7,9,11,13,15,17,19,21,23,25,27,-1,-1,-1,-1,-1,-1,-1,-1,-1,-1,-1,-1,-1,-1,-1],"loss_changes":[7.4885376E2,3.6940286E2,1.7876202E2,1.1743573E2,8.593738E1,7.945413E1,4.0656982E1,1.3136195E2,3.0185242E0,9.478937E1,1.5695826E1,6.962324E1,8.5140564E1,1.6766357E0,0E0,0E0,0E0,0E0,0E0,0E0,0E0,0E0,0E0,0E0,0E0,0E0,0E0,0E0,0E0],"parents":[2147483647,0,0,1,1,2,2,3,3,4,4,5,5,6,6,7,7,8,8,9,9,10,10,11,11,12,12,13,13],"right_children":[2,4,6,8,10,12,14,16,18,20,22,24,26,28,-1,-1,-1,-1,-1,-1,-1,-1,-1,-1,-1,-1,-1,-1,-1],"split_conditions":[2.2826087E-1,1E0,3.375E1,3.15E1,3.8E1,1.21323526E-1,1.2820514E-1,1.3425925E-1,3.3984488E-1,3.9007094E-2,4.2E1,1.1167513E-1,8.62069E-2,8.3064514E-1,4.9985632E-1,5.2105267E-2,-4.1899737E-2,-1.2199809E-1,-3.4077224E-1,2.9232427E-1,8.9191E-2,-1.24759234E-1,5.3864527E-2,9.027032E-2,-6.453323E-2,2.0281385E-1,-5.9509277E-3,6.167221E-2,2.3606597E-1],"split_indices":[13,6,1,1,0,8,7,13,5,11,0,8,9,3,0,0,0,0,0,0,0,0,0,0,0,0,0,0,0],"split_type":[0,0,0,0,0,0,0,0,0,0,0,0,0,0,0,0,0,0,0,0,0,0,0,0,0,0,0,0,0],"sum_hessian":[5.92E2,5.11E2,8.1E1,4.55E2,5.6E1,6.6E1,1.5E1,4.51E2,4E0,5.1E1,5E0,3.6E1,3E1,1.3E1,2E0,4E1,4.11E2,2E0,2E0,6E0,4.5E1,4E0,1E0,2.7E1,9E0,2.4E1,6E0,1E0,1.2E1],"tree_param":{"num_deleted":"0","num_feature":"14","num_nodes":"29","size_leaf_vector":"1"}},{"base_weights":[2.45827E-2,-4.0408957E-1,2.7008708E0,-6.891036E-1,1.883112E0,1.6634164E0,4.752596E0,-1.0293363E0,4.0358596E-2,1.262326E0,4.3643694E0,2.718431E0,5.11315E-1,3.8491952E0,4.492426E-1,-1.0028686E-1,-3.0817226E-2,1.7659251E-1,-1.4933469E-2,1.5168063E-1,-2.8077886E-2,3.0330595E-1,-6.51114E-3,-1.04019836E-1,1.5754758E-1,-8.5590504E-2,1.02525115E-1,-5.235362E-2,2.0538007E-1],"categories":[],"categories_nodes":[],"categories_segments":[],"categories_sizes":[],"default_left":[0,0,0,0,0,0,0,0,0,0,0,0,0,0,0,0,0,0,0,0,0,0,0,0,0,0,0,0,0],"id":14,"left_children":[1,3,5,7,9,11,13,15,17,19,21,23,25,27,-1,-1,-1,-1,-1,-1,-1,-1,-1,-1,-1,-1,-1,-1,-1],"loss_changes":[6.8141095E2,3.3506256E2,1.6663733E2,1.1321474E2,8.2289536E1,6.667711E1,6.864795E1,1.2417316E2,1.73877E2,1.5354274E2,8.492534E1,6.674736E1,9.932063E1,3.466635E1,0E0,0E0,0E0,0E0,0E0,0E0,0E0,0E0,0E0,0E0,0E0,0E0,0E0,0E0,0E0],"parents":[2147483647,0,0,1,1,2,2,3,3,4,4,5,5,6,6,7,7,8,8,9,9,10,10,11,11,12,12,13,13],"right_children":[2,4,6,8,10,12,14,16,18,20,22,24,26,28,-1,-1,-1,-1,-1,-1,-1,-1,-1,-1,-1,-1,-1,-1,-1],"split_conditions":[2.2826087E-1,1E0,3.2E1,1.4659686E-1,1.5025906E-1,1.0096154E0,1.2820514E-1,8.938547E-2,6.7010306E-2,1.1235955E-1,3.2E1,8.7628864E-2,1.0652174E0,4.761905E-2,4.492426E-1,-1.0028686E-1,-3.0817226E-2,1.7659251E-1,-1.4933469E-2,1.5168063E-1,-2.8077886E-2,3.0330595E-1,-6.51114E-3,-1.04019836E-1,1.5754758E-1,-8.5590504E-2,1.02525115E-1,-5.235362E-2,2.0538007E-1],"split_indices":[13,6,1,8,7,3,7,10,9,7,0,8,3,9,0,0,0,0,0,0,0,0,0,0,0,0,0,0,0],"split_type":[0,0,0,0,0,0,0,0,0,0,0,0,0,0,0,0,0,0,0,0,0,0,0,0,0,0,0,0,0],"sum_hessian":[5.92E2,5.11E2,8.1E1,4.55E2,5.6E1,5.5E1,2.6E1,3.1E2,1.45E2,4.6E1,1E1,2.8E1,2.7E1,2.3E1,3E0,9.1E1,2.19E2,1.2E1,1.33E2,2.3E1,2.3E1,7E0,3E0,2E0,2.6E1,1.1E1,1.6E1,1E0,2.2E1],"tree_param":{"num_deleted":"0","num_feature":"14","num_nodes":"29","size_leaf_vector":"1"}},{"base_weights":[2.524823E-2,-3.8300467E-1,2.5740316E0,-6.5458184E-1,1.7963321E0,2.1883326E0,4.0380642E-1,-3.3972582E-1,-6.125678E-1,1.2018399E0,4.173132E0,-1.13612495E-1,2.8317208E0,-6.258483E-2,-1.0171845E-2,9.21914E-2,-1.7461914E-1,2.9143545E-1,-9.065223E-3,7.9442084E-2,-9.963023E-2,8.560118E-2,1.8649437E-1],"categories":[],"categories_nodes":[],"categories_segments":[],"categories_sizes":[],"default_left":[0,0,0,0,0,0,0,0,0,0,0,0,0,0,0,0,0,0,0,0,0,0,0],"id":15,"left_children":[1,3,5,7,9,11,-1,-1,13,15,17,19,21,-1,-1,-1,-1,-1,-1,-1,-1,-1,-1],"loss_changes":[6.180308E2,3.0420718E2,1.5634326E2,1.134693E2,7.552492E1,1.1584317E2,0E0,0E0,1.184606E2,1.4808017E2,8.03569E1,6.074609E1,5.496051E1,0E0,0E0,0E0,0E0,0E0,0E0,0E0,0E0,0E0,0E0],"parents":[2147483647,0,0,1,1,2,2,3,3,4,4,5,5,8,8,9,9,10,10,11,11,12,12],"right_children":[2,4,6,8,10,12,-1,-1,14,16,18,20,22,-1,-1,-1,-1,-1,-1,-1,-1,-1,-1],"split_conditions":[2.2826087E-1,1E0,1.2820514E-1,4.4871796E-2,1.5025906E-1,1.08597286E-1,4.0380642E-1,-3.3972582E-1,1.2935324E-1,1.4358975E-1,1.4249082E-1,2.9E1,2.3195876E-1,-6.258483E-2,-1.0171845E-2,9.21914E-2,-1.7461914E-1,2.9143545E-1,-9.065223E-3,7.9442084E-2,-9.963023E-2,8.560118E-2,1.8649437E-1],"split_indices":[13,6,7,9,7,8,0,0,8,7,4,0,12,0,0,0,0,0,0,0,0,0,0],"split_type":[0,0,0,0,0,0,0,0,0,0,0,0,0,0,0,0,0,0,0,0,0,0,0],"sum_hessian":[5.92E2,5.11E2,8.1E1,4.55E2,5.6E1,7.7E1,4E0,2E0,4.53E2,4.6E1,1E1,1.7E1,6E1,1.76E2,2.77E2,4.1E1,5E0,7E0,3E0,9E0,8E0,2.8E1,3.2E1],"tree_param":{"num_deleted":"0","num_feature":"14","num_nodes":"23","size_leaf_vector":"1"}},{"base_weights":[2.4732854E-2,-3.5329214E-1,2.5251966E0,-6.081958E-1,1.7100232E0,6.9326544E0,2.0616214E0,-4.6324536E-1,-2.3025217E0,9.629359E-1,3.5642505E0,3.829996E-1,6.421571E-2,2.3484266E0,-9.3705857E-1,-4.2547908E-2,1.7462565E-2,-1.92301E-2,-2.0995374E-1,-5.387959E-3,1.9950728E-1,-5.5400144E-2,2.607001E-1,2.1090062E-1,9.051319E-2,6.283977E-2,-1.448324E-1],"categories":[],"categories_nodes":[],"categories_segments":[],"categories_sizes":[],"default_left":[0,0,0,0,0,0,0,0,0,0,0,0,0,0,0,0,0,0,0,0,0,0,0,0,0,0,0],"id":16,"left_children":[1,3,5,7,9,11,13,15,17,19,21,-1,-1,23,25,-1,-1,-1,-1,-1,-1,-1,-1,-1,-1,-1,-1],"loss_changes":[5.6141815E2,2.7242847E2,1.4507611E2,1.11906265E2,7.552823E1,1.8919922E1,6.412323E1,1.3417871E2,1.2933272E2,1.3656116E2,1.2910605E2,0E0,0E0,5.8769653E1,3.3733864E1,0E0,0E0,0E0,0E0,0E0,0E0,0E0,0E0,0E0,0E0,0E0,0E0],"parents":[2147483647,0,0,1,1,2,2,3,3,4,4,5,5,6,6,7,7,8,8,9,9,10,10,13,13,14,14],"right_children":[2,4,6,8,10,12,14,16,18,20,22,-1,-1,24,26,-1,-1,-1,-1,-1,-1,-1,-1,-1,-1,-1,-1],"split_conditions":[2.3952095E-1,1E0,2.8708134E-2,1.2282609E0,1.742437E-1,4.325E1,9.52381E-2,3.5201287E-1,1.3661203E-1,1.5025906E-1,1.44E-1,3.829996E-1,6.421571E-2,6.7510545E-2,2.775E1,-4.2547908E-2,1.7462565E-2,-1.92301E-2,-2.0995374E-1,-5.387959E-3,1.9950728E-1,-5.5400144E-2,2.607001E-1,2.1090062E-1,9.051319E-2,6.283977E-2,-1.448324E-1],"split_indices":[13,6,11,3,4,1,11,5,7,7,8,0,0,10,2,0,0,0,0,0,0,0,0,0,0,0,0],"split_type":[0,0,0,0,0,0,0,0,0,0,0,0,0,0,0,0,0,0,0,0,0,0,0,0,0,0,0],"sum_hessian":[5.92E2,5.15E2,7.7E1,4.59E2,5.6E1,6E0,7.1E1,4.24E2,3.5E1,4.1E1,1.5E1,5E0,1E0,6.5E1,6E0,2.87E2,1.37E2,1.8E1,1.7E1,3.1E1,1E1,4E0,1.1E1,1.3E1,5.2E1,3E0,3E0],"tree_param":{"num_deleted":"0","num_feature":"14","num_nodes":"27","size_leaf_vector":"1"}},{"base_weights":[2.4865014E-2,-3.463991E-1,2.3426986E0,-5.9288055E-1,1.6315296E0,1.6664692E0,5.027991E0,-5.4105604E-1,-5.159236E0,2.3908687E0,-1.2983623E-2,1.3852303E0,5.749673E0,3.8520195E0,4.4199297E-1,-3.6309566E-2,4.485134E-2,-1.1174806E-1,-3.1818828E-1,4.2735778E-2,2.2728346E-1,8.0527306E-2,-8.176076E-2,1.17408566E-1,2.0474648E-2,8.614769E-2,3.2587975E-1,2.1768029E-1,1.0392215E-1],"categories":[],"categories_nodes":[],"categories_segments":[],"categories_sizes":[],"default_left":[0,0,0,0,0,0,0,0,0,0,0,0,0,0,0,0,0,0,0,0,0,0,0,0,0,0,0,0,0],"id":17,"left_children":[1,3,5,7,9,11,13,15,17,19,21,23,25,27,-1,-1,-1,-1,-1,-1,-1,-1,-1,-1,-1,-1,-1,-1,-1],"loss_changes":[5.1110483E2,2.5057895E2,1.4052264E2,1.051205E2,7.120938E1,6.8975204E1,3.767105E1,1.2099184E2,3.3891144E0,1.252088E2,5.2674667E1,5.917138E1,1.1393127E0,3.4057007E0,0E0,0E0,0E0,0E0,0E0,0E0,0E0,0E0,0E0,0E0,0E0,0E0,0E0,0E0,0E0],"parents":[2147483647,0,0,1,1,2,2,3,3,4,4,5,5,6,6,7,7,8,8,9,9,10,10,11,11,12,12,13,13],"right_children":[2,4,6,8,10,12,14,16,18,20,22,24,26,28,-1,-1,-1,-1,-1,-1,-1,-1,-1,-1,-1,-1,-1,-1,-1],"split_conditions":[2.2826087E-1,1E0,3.375E1,3.15E1,3.05E1,2.7359906E-1,1.2820514E-1,3.1E1,3.3984488E-1,2.8E1,1.3953489E-1,1.0168067E0,2.975E1,1.1724138E0,4.4199297E-1,-3.6309566E-2,4.485134E-2,-1.1174806E-1,-3.1818828E-1,4.2735778E-2,2.2728346E-1,8.0527306E-2,-8.176076E-2,1.17408566E-1,2.0474648E-2,8.614769E-2,3.2587975E-1,2.1768029E-1,1.0392215E-1],"split_indices":[13,6,1,1,1,4,7,0,5,1,13,3,1,3,0,0,0,0,0,0,0,0,0,0,0,0,0,0,0],"split_type":[0,0,0,0,0,0,0,0,0,0,0,0,0,0,0,0,0,0,0,0,0,0,0,0,0,0,0,0,0],"sum_hessian":[5.92E2,5.11E2,8.1E1,4.55E2,5.6E1,6.6E1,1.5E1,4.51E2,4E0,3.8E1,1.8E1,6.3E1,3E0,1.3E1,2E0,4E2,5.1E1,2E0,2E0,2.3E1,1.5E1,9E0,9E0,3.1E1,3.2E1,1E0,2E0,9E0,4E0],"tree_param":{"num_deleted":"0","num_feature":"14","num_nodes":"29","size_leaf_vector":"1"}},{"base_weights":[2.557978E-2,-1.9650261E-1,3.571822E0,-3.8733405E-1,1.5244893E0,2.9253688E0,3.9252457E-1,3.9573867E-2,-1.1236757E0,1.823408E0,-2.8173056E0,-1.3850032E-1,3.1984456E0,-1.5328704E-2,7.72329E-2,-4.177241E-2,-1.9614486E-1,1.1140082E-1,-8.5868046E-2,-2.4373809E-1,8.3876565E-2,-6.504555E-2,1.6958939E-1],"categories":[],"categories_nodes":[],"categories_segments":[],"categories_sizes":[],"default_left":[0,0,0,0,0,0,0,0,0,0,0,0,0,0,0,0,0,0,0,0,0,0,0],"id":18,"left_children":[1,3,5,7,9,11,-1,13,15,17,19,-1,21,-1,-1,-1,-1,-1,-1,-1,-1,-1,-1],"loss_changes":[4.677237E2,1.8417691E2,7.384299E1,1.584769E2,7.781633E1,5.862851E1,0E0,1.6718773E2,1.4598291E2,7.975545E1,4.516928E1,0E0,3.1379791E1,0E0,0E0,0E0,0E0,0E0,0E0,0E0,0E0,0E0,0E0],"parents":[2147483647,0,0,1,1,2,2,3,3,4,4,5,5,7,7,8,8,9,9,10,10,12,12],"right_children":[2,4,6,8,10,12,-1,14,16,18,20,-1,22,-1,-1,-1,-1,-1,-1,-1,-1,-1,-1],"split_conditions":[3.1E1,1E0,1.2820514E-1,1.0810811E-1,3.025E1,8.7628864E-2,3.9252457E-1,3.661567E-1,1.2E0,3.8E1,3.1E1,-1.3850032E-1,7.266436E-2,-1.5328704E-2,7.72329E-2,-4.177241E-2,-1.9614486E-1,1.1140082E-1,-8.5868046E-2,-2.4373809E-1,8.3876565E-2,-6.504555E-2,1.6958939E-1],"split_indices":[2,6,7,9,2,8,0,5,3,0,0,0,7,0,0,0,0,0,0,0,0,0,0],"split_type":[0,0,0,0,0,0,0,0,0,0,0,0,0,0,0,0,0,0,0,0,0,0,0],"sum_hessian":[5.92E2,5.58E2,3.4E1,5.03E2,5.5E1,3.1E1,3E0,3.19E2,1.84E2,5.2E1,3E0,1E0,3E1,2.6E2,5.9E1,1.68E2,1.6E1,4.7E1,5E0,2E0,1E0,1E0,2.9E1],"tree_param":{"num_deleted":"0","num_feature":"14","num_nodes":"23","size_leaf_vector":"1"}},{"base_weights":[2.4382558E-2,-3.1978393E-1,2.1730273E0,-5.4336184E-1,1.4744496E0,1.8291583E0,3.5513887E-1,-5.867256E-1,4.5034237E0,7.817158E-1,3.2007232E0,-2.1450466E-1,2.4022202E0,-3.1777403E-1,-2.735258E-2,8.9008905E-2,3.1682903E-1,-1.13682775E-2,1.82308E-1,-5.9349574E-2,2.3811053E-1,6.915044E-2,-9.828429E-2,-1.7028602E-2,1.326597E-1],"categories":[],"categories_nodes":[],"categories_segments":[],"categories_sizes":[],"default_left":[0,0,0,0,0,0,0,0,0,0,0,0,0,0,0,0,0,0,0,0,0,0,0,0,0],"id":19,"left_children":[1,3,5,7,9,11,-1,13,15,17,19,21,23,-1,-1,-1,-1,-1,-1,-1,-1,-1,-1,-1,-1],"loss_changes":[4.3921338E2,2.0619049E2,1.26013306E2,1.0243677E2,6.5661285E1,9.1864624E1,0E0,1.0020122E2,8.688301E0,1.2222821E2,1.1527449E2,5.3074196E1,4.2894073E1,0E0,0E0,0E0,0E0,0E0,0E0,0E0,0E0,0E0,0E0,0E0,0E0],"parents":[2147483647,0,0,1,1,2,2,3,3,4,4,5,5,7,7,8,8,9,9,10,10,11,11,12,12],"right_children":[2,4,6,8,10,12,-1,14,16,18,20,22,24,-1,-1,-1,-1,-1,-1,-1,-1,-1,-1,-1,-1],"split_conditions":[2.2826087E-1,1E0,1.2820514E-1,1.14832535E-1,1.742437E-1,1.08597286E-1,3.5513887E-1,4.4871796E-2,2.4E1,1.5025906E-1,1.44E-1,2.9E1,2.0588236E-1,-3.1777403E-1,-2.735258E-2,8.9008905E-2,3.1682903E-1,-1.13682775E-2,1.82308E-1,-5.9349574E-2,2.3811053E-1,6.915044E-2,-9.828429E-2,-1.7028602E-2,1.326597E-1],"split_indices":[13,6,7,11,4,8,0,9,0,7,8,0,12,0,0,0,0,0,0,0,0,0,0,0,0],"split_type":[0,0,0,0,0,0,0,0,0,0,0,0,0,0,0,0,0,0,0,0,0,0,0,0,0],"sum_hessian":[5.92E2,5.11E2,8.1E1,4.55E2,5.6E1,7.7E1,4E0,4.52E2,3E0,4.1E1,1.5E1,1.7E1,6E1,2E0,4.5E2,2E0,1E0,3.1E1,1E1,4E0,1.1E1,9E0,8E0,5E0,5.5E1],"tree_param":{"num_deleted":"0","num_feature":"14","num_nodes":"25","size_leaf_vector":"1"}},{"base_weights":[2.4600761E-2,-3.0299255E-1,2.0697615E0,-5.1605994E-1,1.4068621E0,6.045406E0,1.67635E0,-6.437166E-1,1.1955066E0,3.9911053E0,9.65246E-1,3.3516333E-1,5.2456E-2,8.142048E-1,2.6630285E0,-9.68857E-2,-2.1901105E-2,-7.052314E-2,1.06146626E-1,2.4687056E-1,-6.5825894E-2,8.435821E-2,-1.5178595E-1,7.999303E-2,-6.4162835E-2,1.709837E-1,4.8599984E-3],"categories":[],"categories_nodes":[],"categories_segments":[],"categories_sizes":[],"default_left":[0,0,0,0,0,0,0,0,0,0,0,0,0,0,0,0,0,0,0,0,0,0,0,0,0,0,0],"id":20,"left_children":[1,3,5,7,9,11,13,15,17,19,21,-1,-1,23,25,-1,-1,-1,-1,-1,-1,-1,-1,-1,-1,-1,-1],"loss_changes":[3.9792584E2,1.8725493E2,1.1811902E2,1.0040229E2,6.1198486E1,1.5975494E1,6.248192E1,1.1227269E2,8.033331E1,4.6681267E1,1.4954019E2,0E0,0E0,7.1264114E1,6.76174E1,0E0,0E0,0E0,0E0,0E0,0E0,0E0,0E0,0E0,0E0,0E0,0E0],"parents":[2147483647,0,0,1,1,2,2,3,3,4,4,5,5,6,6,7,7,8,8,9,9,10,10,13,13,14,14],"right_children":[2,4,6,8,10,12,14,16,18,20,22,-1,-1,24,26,-1,-1,-1,-1,-1,-1,-1,-1,-1,-1,-1,-1],"split_conditions":[2.2826087E-1,1E0,2.8708134E-2,1.761658E-1,9.247312E-1,4.325E1,1.2135922E-1,3.0347756E-1,1.7060712E-1,2.8625E1,1.7741935E-1,3.3516333E-1,5.2456E-2,1.1167513E-1,8.62069E-2,-9.68857E-2,-2.1901105E-2,-7.052314E-2,1.06146626E-1,2.4687056E-1,-6.5825894E-2,8.435821E-2,-1.5178595E-1,7.999303E-2,-6.4162835E-2,1.709837E-1,4.8599984E-3],"split_indices":[13,6,11,8,3,1,8,5,4,2,13,0,0,8,9,0,0,0,0,0,0,0,0,0,0,0,0],"split_type":[0,0,0,0,0,0,0,0,0,0,0,0,0,0,0,0,0,0,0,0,0,0,0,0,0,0,0],"sum_hessian":[5.92E2,5.11E2,8.1E1,4.55E2,5.6E1,6E0,7.5E1,4.24E2,3.1E1,7E0,4.9E1,5E0,1E0,4.1E1,3.4E1,5.7E1,3.67E2,8E0,2.3E1,6E0,1E0,4.2E1,7E0,3E1,1.1E1,2.6E1,8E0],"tree_param":{"num_deleted":"0","num_feature":"14","num_nodes":"27","size_leaf_vector":"1"}},{"base_weights":[2.4398444E-2,-2.8778407E-1,1.973338E0,-4.9044004E-1,1.3385125E0,1.648086E0,3.326302E-1,-4.064556E-1,-3.1129162E0,1.6633176E0,-1.6995506E0,-2.8094673E-1,2.190291E0,7.747736E-2,-2.9426431E-2,-2.0329161E-1,1.4291572E-2,2.386726E-1,5.7693865E-2,-1.15522645E-1,3.3874035E-2,6.2438995E-2,-9.7471334E-2,6.302577E-2,1.470497E-1],"categories":[],"categories_nodes":[],"categories_segments":[],"categories_sizes":[],"default_left":[0,0,0,0,0,0,0,0,0,0,0,0,0,0,0,0,0,0,0,0,0,0,0,0,0],"id":21,"left_children":[1,3,5,7,9,11,-1,13,15,17,19,21,23,-1,-1,-1,-1,-1,-1,-1,-1,-1,-1,-1,-1],"loss_changes":[3.6136386E2,1.6940076E2,1.1383511E2,9.916744E1,5.907325E1,8.219797E1,0E0,1.5867989E2,4.6504227E1,7.688228E1,1.0278095E1,4.837613E1,3.8869934E1,0E0,0E0,0E0,0E0,0E0,0E0,0E0,0E0,0E0,0E0,0E0,0E0],"parents":[2147483647,0,0,1,1,2,2,3,3,4,4,5,5,7,7,8,8,9,9,10,10,11,11,12,12],"right_children":[2,4,6,8,10,12,-1,14,16,18,20,22,24,-1,-1,-1,-1,-1,-1,-1,-1,-1,-1,-1,-1],"split_conditions":[2.2826087E-1,1E0,1.2820514E-1,2.975E1,3.8E1,1.08597286E-1,3.326302E-1,1.3425925E-1,1.07344635E-1,3.9007094E-2,4.2E1,2.9E1,2.3195876E-1,7.747736E-2,-2.9426431E-2,-2.0329161E-1,1.4291572E-2,2.386726E-1,5.7693865E-2,-1.15522645E-1,3.3874035E-2,6.2438995E-2,-9.7471334E-2,6.302577E-2,1.470497E-1],"split_indices":[13,6,7,1,0,8,0,13,10,11,0,0,12,0,0,0,0,0,0,0,0,0,0,0,0],"split_type":[0,0,0,0,0,0,0,0,0,0,0,0,0,0,0,0,0,0,0,0,0,0,0,0,0],"sum_hessian":[5.92E2,5.11E2,8.1E1,4.55E2,5.6E1,7.7E1,4E0,4.42E2,1.3E1,5.1E1,5E0,1.7E1,6E1,3.7E1,4.05E2,1E1,3E0,6E0,4.5E1,4E0,1E0,9E0,8E0,2.8E1,3.2E1],"tree_param":{"num_deleted":"0","num_feature":"14","num_nodes":"25","size_leaf_vector":"1"}},{"base_weights":[2.4159204E-2,-1.6265579E-1,3.0071712E0,-7.415662E-1,2.324653E-1,2.4950368E0,3.8191292E-1,-1.3309106E0,8.483167E-1,-5.817187E-1,8.116402E-1,-1.3214374E-1,2.7381864E0,-1.1416433E-1,-2.4064498E-2,-8.250995E-2,9.1443576E-2,4.7432598E-2,-8.953546E-2,5.0669547E-2,-1.5110438E-1,-7.053361E-2,1.458763E-1],"categories":[],"categories_nodes":[],"categories_segments":[],"categories_sizes":[],"default_left":[0,0,0,0,0,0,0,0,0,0,0,0,0,0,0,0,0,0,0,0,0,0,0],"id":22,"left_children":[1,3,5,7,9,11,-1,13,15,17,19,-1,21,-1,-1,-1,-1,-1,-1,-1,-1,-1,-1],"loss_changes":[3.3095105E2,1.2803789E2,6.3953125E1,2.1382547E2,1.5749994E2,4.8462967E1,0E0,1.3322134E2,1.5491376E2,2.58877E2,1.5388675E2,0E0,2.792543E1,0E0,0E0,0E0,0E0,0E0,0E0,0E0,0E0,0E0,0E0],"parents":[2147483647,0,0,1,1,2,2,3,3,4,4,5,5,7,7,8,8,9,9,10,10,12,12],"right_children":[2,4,6,8,10,12,-1,14,16,18,20,-1,22,-1,-1,-1,-1,-1,-1,-1,-1,-1,-1],"split_conditions":[3.1E1,2.4375E1,4.1E1,1.521739E-1,1.2962963E-1,8.7628864E-2,3.8191292E-1,9.74359E-2,2.4644549E-1,1.2820514E-1,1.3493975E0,-1.3214374E-1,7.266436E-2,-1.1416433E-1,-2.4064498E-2,-8.250995E-2,9.1443576E-2,4.7432598E-2,-8.953546E-2,5.0669547E-2,-1.5110438E-1,-7.053361E-2,1.458763E-1],"split_indices":[2,2,0,7,8,8,0,10,12,7,3,0,7,0,0,0,0,0,0,0,0,0,0],"split_type":[0,0,0,0,0,0,0,0,0,0,0,0,0,0,0,0,0,0,0,0,0,0,0],"sum_hessian":[5.92E2,5.58E2,3.4E1,2.26E2,3.32E2,3.2E1,2E0,1.65E2,6.1E1,1.38E2,1.94E2,1E0,3.1E1,7.7E1,8.8E1,1.7E1,4.4E1,6.1E1,7.7E1,1.85E2,9E0,1E0,3E1],"tree_param":{"num_deleted":"0","num_feature":"14","num_nodes":"23","size_leaf_vector":"1"}},{"base_weights":[2.3041364E-2,-2.622612E-1,1.8041618E0,-4.5404428E-1,1.2766044E0,1.494465E0,3.1372997E-1,-3.00899E-1,-4.162781E-1,7.612149E-1,3.3626685E0,-3.0015767E-1,1.9995264E0,-4.029042E-3,-5.3485524E-2,1.1264068E-1,-3.810506E-2,3.126255E-1,4.0905748E-2,5.7810564E-2,-9.4249725E-2,8.7532654E-2,2.5541544E-1],"categories":[],"categories_nodes":[],"categories_segments":[],"categories_sizes":[],"default_left":[0,0,0,0,0,0,0,0,0,0,0,0,0,0,0,0,0,0,0,0,0,0,0],"id":23,"left_children":[1,3,5,7,9,11,-1,-1,13,15,17,19,21,-1,-1,-1,-1,-1,-1,-1,-1,-1,-1],"loss_changes":[3.0181104E2,1.5168536E2,1.0415018E2,9.331351E1,5.8723015E1,7.129895E1,0E0,0E0,9.9501175E1,1.0850916E2,7.577164E1,4.372538E1,3.8252396E1,0E0,0E0,0E0,0E0,0E0,0E0,0E0,0E0,0E0,0E0],"parents":[2147483647,0,0,1,1,2,2,3,3,4,4,5,5,8,8,9,9,10,10,11,11,12,12],"right_children":[2,4,6,8,10,12,-1,-1,14,16,18,20,22,-1,-1,-1,-1,-1,-1,-1,-1,-1,-1],"split_conditions":[2.2826087E-1,1E0,1.2820514E-1,4.4871796E-2,1.5025906E-1,1.08597286E-1,3.1372997E-1,-3.00899E-1,1.1219512E-1,1.1235955E-1,1.5789473E-1,2.9E1,2.7359906E-1,-4.029042E-3,-5.3485524E-2,1.1264068E-1,-3.810506E-2,3.126255E-1,4.0905748E-2,5.7810564E-2,-9.4249725E-2,8.7532654E-2,2.5541544E-1],"split_indices":[13,6,7,9,7,8,0,0,9,7,7,0,4,0,0,0,0,0,0,0,0,0,0],"split_type":[0,0,0,0,0,0,0,0,0,0,0,0,0,0,0,0,0,0,0,0,0,0,0],"sum_hessian":[5.92E2,5.11E2,8.1E1,4.55E2,5.6E1,7.7E1,4E0,2E0,4.53E2,4.6E1,1E1,1.7E1,6E1,3E2,1.53E2,2.3E1,2.3E1,4E0,6E0,9E0,8E0,5.7E1,3E0],"tree_param":{"num_deleted":"0","num_feature":"14","num_nodes":"23","size_leaf_vector":"1"}},{"base_weights":[2.3052502E-2,-1.484924E-1,2.7622108E0,-1.3837712E0,2.253901E-2,2.2705362E0,3.6249486E-1,-6.627225E-1,-3.5079336E0,1.7390405E-1,-1.4848849E0,-1.2648392E-1,2.4995952E0,-5.4570127E-2,2.3771441E-1,-2.274791E-1,-8.836909E-2,-1.2675446E-2,4.3061335E-2,2.3622118E-2,-2.0940991E-1,-7.095857E-2,1.3358934E-1],"categories":[],"categories_nodes":[],"categories_segments":[],"categories_sizes":[],"default_left":[0,0,0,0,0,0,0,0,0,0,0,0,0,0,0,0,0,0,0,0,0,0,0],"id":24,"left_children":[1,3,5,7,9,11,-1,13,15,17,19,-1,21,-1,-1,-1,-1,-1,-1,-1,-1,-1,-1],"loss_changes":[2.7905417E2,1.1813194E2,6.0765747E1,1.018257E2,1.1251848E2,4.2607758E1,0E0,1.2594139E2,2.2780884E1,1.3182756E2,2.4008578E2,0E0,2.5384628E1,0E0,0E0,0E0,0E0,0E0,0E0,0E0,0E0,0E0,0E0],"parents":[2147483647,0,0,1,1,2,2,3,3,4,4,5,5,7,7,8,8,9,9,10,10,12,12],"right_children":[2,4,6,8,10,12,-1,14,16,18,20,-1,22,-1,-1,-1,-1,-1,-1,-1,-1,-1,-1],"split_conditions":[3.1E1,3.0347756E-1,4.1E1,2.9815102E-1,1.2987013E-1,8.7628864E-2,3.6249486E-1,3.314917E-1,1.4577703E-1,1.4150943E-1,2.6E1,-1.2648392E-1,7.266436E-2,-5.4570127E-2,2.3771441E-1,-2.274791E-1,-8.836909E-2,-1.2675446E-2,4.3061335E-2,2.3622118E-2,-2.0940991E-1,-7.095857E-2,1.3358934E-1],"split_indices":[2,5,0,5,10,8,0,12,4,8,0,0,7,0,0,0,0,0,0,0,0,0,0],"split_type":[0,0,0,0,0,0,0,0,0,0,0,0,0,0,0,0,0,0,0,0,0,0,0],"sum_hessian":[5.92E2,5.58E2,3.4E1,6.7E1,4.91E2,3.2E1,2E0,5.1E1,1.6E1,4.47E2,4.4E1,1E0,3.1E1,4.8E1,3E0,9E0,7E0,2.76E2,1.71E2,2.6E1,1.8E1,1E0,3E1],"tree_param":{"num_deleted":"0","num_feature":"14","num_nodes":"23","size_leaf_vector":"1"}},{"base_weights":[2.1917684E-2,-2.42953E-1,1.675477E0,-4.228952E-1,1.2008468E0,1.3826429E0,2.9542974E-1,-4.6359596E-1,4.292193E0,3.6652157E0,7.8253084E-1,-2.746776E-1,1.849022E0,-3.4184437E-2,2.0972542E-2,8.084695E-2,3.079489E-1,2.2816627E-1,-6.553884E-2,7.227279E-2,-1.4392535E-1,5.525769E-2,-8.88652E-2,8.0372065E-2,2.4448438E-1],"categories":[],"categories_nodes":[],"categories_segments":[],"categories_sizes":[],"default_left":[0,0,0,0,0,0,0,0,0,0,0,0,0,0,0,0,0,0,0,0,0,0,0,0,0],"id":25,"left_children":[1,3,5,7,9,11,-1,13,15,17,19,21,23,-1,-1,-1,-1,-1,-1,-1,-1,-1,-1,-1,-1],"loss_changes":[2.601288E2,1.3352568E2,9.347786E1,8.94998E1,5.5892296E1,6.079718E1,0E0,8.832832E1,1.0017799E1,4.1733406E1,1.25510414E2,3.9284874E1,3.6948654E1,0E0,0E0,0E0,0E0,0E0,0E0,0E0,0E0,0E0,0E0,0E0,0E0],"parents":[2147483647,0,0,1,1,2,2,3,3,4,4,5,5,7,7,8,8,9,9,10,10,11,11,12,12],"right_children":[2,4,6,8,10,12,-1,14,16,18,20,22,24,-1,-1,-1,-1,-1,-1,-1,-1,-1,-1,-1,-1],"split_conditions":[2.2826087E-1,1E0,1.2820514E-1,1.14832535E-1,9.247312E-1,1.08597286E-1,2.9542974E-1,3.661567E-1,2.4E1,2.8625E1,1.7741935E-1,2.9E1,2.7359906E-1,-3.4184437E-2,2.0972542E-2,8.084695E-2,3.079489E-1,2.2816627E-1,-6.553884E-2,7.227279E-2,-1.4392535E-1,5.525769E-2,-8.88652E-2,8.0372065E-2,2.4448438E-1],"split_indices":[13,6,7,11,3,8,0,5,0,2,13,0,4,0,0,0,0,0,0,0,0,0,0,0,0],"split_type":[0,0,0,0,0,0,0,0,0,0,0,0,0,0,0,0,0,0,0,0,0,0,0,0,0],"sum_hessian":[5.92E2,5.11E2,8.1E1,4.55E2,5.6E1,7.7E1,4E0,4.52E2,3E0,7E0,4.9E1,1.7E1,6E1,3.62E2,9E1,2E0,1E0,6E0,1E0,4.2E1,7E0,9E0,8E0,5.7E1,3E0],"tree_param":{"num_deleted":"0","num_feature":"14","num_nodes":"25","size_leaf_vector":"1"}},{"base_weights":[2.2597227E-2,-2.2989492E-1,1.598858E0,-4.0092763E-1,1.1424E0,1.3172449E0,5.672251E0,-3.536098E-1,-4.5982766E0,6.4063966E-1,3.1824307E0,-2.6281083E-1,1.7618966E0,1.6015606E-1,3.887193E-1,-2.6367584E-2,4.965038E-2,-9.896021E-2,-2.842295E-1,5.8428098E-2,-1.5807945E-1,2.956203E-1,3.8890798E-2,5.277109E-2,-8.491563E-2,7.642276E-2,2.3531623E-1],"categories":[],"categories_nodes":[],"categories_segments":[],"categories_sizes":[],"default_left":[0,0,0,0,0,0,0,0,0,0,0,0,0,0,0,0,0,0,0,0,0,0,0,0,0,0,0],"id":26,"left_children":[1,3,5,7,9,11,13,15,17,19,21,23,25,-1,-1,-1,-1,-1,-1,-1,-1,-1,-1,-1,-1,-1,-1],"loss_changes":[2.363777E2,1.20628174E2,8.659216E1,8.893997E1,5.6306786E1,5.526387E1,1.0499268E0,1.0627531E2,2.974701E0,9.803672E1,6.7611145E1,3.585429E1,3.4735046E1,0E0,0E0,0E0,0E0,0E0,0E0,0E0,0E0,0E0,0E0,0E0,0E0,0E0,0E0],"parents":[2147483647,0,0,1,1,2,2,3,3,4,4,5,5,6,6,7,7,8,8,9,9,10,10,11,11,12,12],"right_children":[2,4,6,8,10,12,14,16,18,20,22,24,26,-1,-1,-1,-1,-1,-1,-1,-1,-1,-1,-1,-1,-1,-1],"split_conditions":[2.2826087E-1,1E0,1.2820514E-1,3.15E1,1.5025906E-1,1.08597286E-1,3.6E1,3.1E1,3.3984488E-1,1.4358975E-1,1.5789473E-1,2.9E1,2.7359906E-1,1.6015606E-1,3.887193E-1,-2.6367584E-2,4.965038E-2,-9.896021E-2,-2.842295E-1,5.8428098E-2,-1.5807945E-1,2.956203E-1,3.8890798E-2,5.277109E-2,-8.491563E-2,7.642276E-2,2.3531623E-1],"split_indices":[13,6,7,1,7,8,0,0,5,7,7,0,4,0,0,0,0,0,0,0,0,0,0,0,0,0,0],"split_type":[0,0,0,0,0,0,0,0,0,0,0,0,0,0,0,0,0,0,0,0,0,0,0,0,0,0,0],"sum_hessian":[5.92E2,5.11E2,8.1E1,4.55E2,5.6E1,7.7E1,4E0,4.51E2,4E0,4.6E1,1E1,1.7E1,6E1,3E0,1E0,4E2,5.1E1,2E0,2E0,4.1E1,5E0,4E0,6E0,9E0,8E0,5.7E1,3E0],"tree_param":{"num_deleted":"0","num_feature":"14","num_nodes":"27","size_leaf_vector":"1"}},{"base_weights":[2.2653265E-2,-1.2940112E-1,2.4505317E0,-1.2905596E0,3.1347223E-2,1.9874197E0,3.3639595E-1,-5.994457E-1,-3.3286402E0,-2.8413042E-1,6.626665E-2,-1.1897731E-1,2.1982484E0,-5.0475087E-2,2.2868012E-1,-2.0919345E-1,-7.545947E-2,1.05976015E-2,-6.8955496E-2,-7.310448E-2,1.181744E-1],"categories":[],"categories_nodes":[],"categories_segments":[],"categories_sizes":[],"default_left":[0,0,0,0,0,0,0,0,0,0,0,0,0,0,0,0,0,0,0,0,0],"id":27,"left_children":[1,3,5,7,9,11,-1,13,15,-1,17,-1,19,-1,-1,-1,-1,-1,-1,-1,-1],"loss_changes":[2.1923465E2,1.0438022E2,5.5960648E1,9.378578E1,9.854437E1,3.5613297E1,0E0,1.1492151E2,2.013855E1,0E0,1.03471725E2,0E0,2.2810272E1,0E0,0E0,0E0,0E0,0E0,0E0,0E0,0E0],"parents":[2147483647,0,0,1,1,2,2,3,3,4,4,5,5,7,7,8,8,10,10,12,12],"right_children":[2,4,6,8,10,12,-1,14,16,-1,18,-1,20,-1,-1,-1,-1,-1,-1,-1,-1],"split_conditions":[3.1E1,3.0347756E-1,4.1E1,2.9815102E-1,4.4871796E-2,8.7628864E-2,3.3639595E-1,3.314917E-1,1.6959064E-1,-2.8413042E-1,1.2987013E-1,-1.1897731E-1,7.266436E-2,-5.0475087E-2,2.2868012E-1,-2.0919345E-1,-7.545947E-2,1.05976015E-2,-6.8955496E-2,-7.310448E-2,1.181744E-1],"split_indices":[2,5,0,5,9,8,0,12,13,0,10,0,7,0,0,0,0,0,0,0,0],"split_type":[0,0,0,0,0,0,0,0,0,0,0,0,0,0,0,0,0,0,0,0,0],"sum_hessian":[5.92E2,5.58E2,3.4E1,6.7E1,4.91E2,3.2E1,2E0,5.1E1,1.6E1,2E0,4.89E2,1E0,3.1E1,4.8E1,3E0,1E1,6E0,4.45E2,4.4E1,1E0,3E1],"tree_param":{"num_deleted":"0","num_feature":"14","num_nodes":"21","size_leaf_vector":"1"}},{"base_weights":[2.1206472E-2,-2.1254389E-1,1.4804623E0,-3.283202E-2,-1.3854738E0,1.2106168E0,5.39396E0,2.323909E0,-1.492055E-1,4.141867E-1,-2.4414206E0,-2.5684962E-1,1.6237935E0,1.5182677E-1,3.7059146E-1,3.153822E-1,5.0776094E-2,-1.5364677E-1,-2.4746656E-3,-1.390511E-1,1.2925029E-1,1.3341769E-2,-1.4439045E-1,4.9687013E-2,-8.089276E-2,6.988916E-2,2.2474976E-1],"categories":[],"categories_nodes":[],"categories_segments":[],"categories_sizes":[],"default_left":[0,0,0,0,0,0,0,0,0,0,0,0,0,0,0,0,0,0,0,0,0,0,0,0,0,0,0],"id":28,"left_children":[1,3,5,7,9,11,13,15,17,19,21,23,25,-1,-1,-1,-1,-1,-1,-1,-1,-1,-1,-1,-1,-1,-1],"loss_changes":[2.025879E2,1.07878716E2,8.006525E1,1.2239341E2,1.302347E2,4.771025E1,1.2785797E0,1.0305208E2,1.2374881E2,1.8753069E2,5.275473E1,3.22448E1,3.3301178E1,0E0,0E0,0E0,0E0,0E0,0E0,0E0,0E0,0E0,0E0,0E0,0E0,0E0,0E0],"parents":[2147483647,0,0,1,1,2,2,3,3,4,4,5,5,6,6,7,7,8,8,9,9,10,10,11,11,12,12],"right_children":[2,4,6,8,10,12,14,16,18,20,22,24,26,-1,-1,-1,-1,-1,-1,-1,-1,-1,-1,-1,-1,-1,-1],"split_conditions":[2.2826087E-1,1.959799E-1,1.2820514E-1,3.9007094E-2,9.090909E-2,1.08597286E-1,3.6E1,1.1578947E-1,4.278075E-2,2.029703E-1,1.3666789E-1,2.9E1,2.7359906E-1,1.5182677E-1,3.7059146E-1,3.153822E-1,5.0776094E-2,-1.5364677E-1,-2.4746656E-3,-1.390511E-1,1.2925029E-1,1.3341769E-2,-1.4439045E-1,4.9687013E-2,-8.089276E-2,6.988916E-2,2.2474976E-1],"split_indices":[13,13,7,11,9,8,0,9,11,13,4,0,4,0,0,0,0,0,0,0,0,0,0,0,0,0,0],"split_type":[0,0,0,0,0,0,0,0,0,0,0,0,0,0,0,0,0,0,0,0,0,0,0,0,0,0,0],"sum_hessian":[5.92E2,5.11E2,8.1E1,4.44E2,6.7E1,7.7E1,4E0,2E1,4.24E2,2.5E1,4.2E1,1.7E1,6E1,3E0,1E0,4E0,1.6E1,1.3E1,4.11E2,1E1,1.5E1,6E0,3.6E1,9E0,8E0,5.7E1,3E0],"tree_param":{"num_deleted":"0","num_feature":"14","num_nodes":"27","size_leaf_vector":"1"}},{"base_weights":[2.1587482E-2,-2.6679847E-1,1.1144892E0,3.366389E-1,-7.0730305E-1,1.2861955E0,-3.1198645E-1,2.8602881E0,1.4487693E-1,-3.7871006E-1,-2.549407E0,1.653596E0,-1.6661519E0,1.8673037E-1,-7.952087E-2,6.147773E-2,-2.1034302E-2,-2.864835E-2,1.3435371E-1,-1.4311898E-1,1.18451826E-1,9.1795616E-2,-1.7955902E-1,7.137753E-2,-1.523194E-1],"categories":[],"categories_nodes":[],"categories_segments":[],"categories_sizes":[],"default_left":[0,0,0,0,0,0,0,0,0,0,0,0,0,0,0,0,0,0,0,0,0,0,0,0,0],"id":29,"left_children":[1,3,5,7,9,11,-1,13,15,17,19,21,23,-1,-1,-1,-1,-1,-1,-1,-1,-1,-1,-1,-1],"loss_changes":[1.871976E2,1.2517206E2,1.6460843E2,9.588967E1,1.6367677E2,1.3508783E2,0E0,6.0418297E1,1.1461959E2,1.3970718E2,6.989389E1,1.108197E2,6.4129425E1,0E0,0E0,0E0,0E0,0E0,0E0,0E0,0E0,0E0,0E0,0E0,0E0],"parents":[2147483647,0,0,1,1,2,2,3,3,4,4,5,5,7,7,8,8,9,9,10,10,11,11,12,12],"right_children":[2,4,6,8,10,12,-1,14,16,18,20,22,24,-1,-1,-1,-1,-1,-1,-1,-1,-1,-1,-1,-1],"split_conditions":[3.1E1,1.2820514E-1,3.45E-1,1.3170731E-1,1.8781726E-1,1.2763158E0,-3.1198645E-1,1.1981567E-1,1.3227513E-1,1.8461539E-1,2.2543353E-1,1.3537118E-1,3.3E1,1.8673037E-1,-7.952087E-2,6.147773E-2,-2.1034302E-2,-2.864835E-2,1.3435371E-1,-1.4311898E-1,1.18451826E-1,9.1795616E-2,-1.7955902E-1,7.137753E-2,-1.523194E-1],"split_indices":[0,7,12,13,13,3,0,10,8,13,13,10,0,0,0,0,0,0,0,0,0,0,0,0,0],"split_type":[0,0,0,0,0,0,0,0,0,0,0,0,0,0,0,0,0,0,0,0,0,0,0,0,0],"sum_hessian":[5.92E2,4.69E2,1.23E2,1.98E2,2.71E2,1.21E2,2E0,1.3E1,1.85E2,2.31E2,4E1,1.08E2,1.3E1,1.1E1,2E0,6.3E1,1.22E2,2.18E2,1.3E1,3.8E1,2E0,1.05E2,3E0,4E0,9E0],"tree_param":{"num_deleted":"0","num_feature":"14","num_nodes":"25","size_leaf_vector":"1"}},{"base_weights":[2.00833E-2,-1.1478953E-1,2.1736214E0,-3.2283154E-1,7.001362E-1,1.7330258E0,3.1478158E-1,2.7838606E-1,-3.619055E-1,-9.1100955E-1,1.3677759E0,-1.1551752E-1,1.9315798E0,-2.4714941E-2,7.407995E-2,-9.764405E-2,2.1382688E-1,9.033872E-2,-6.535149E-2,7.754592E-2,2.1042399E-1],"categories":[],"categories_nodes":[],"categories_segments":[],"categories_sizes":[],"default_left":[0,0,0,0,0,0,0,0,0,0,0,0,0,0,0,0,0,0,0,0,0],"id":30,"left_children":[1,3,5,7,9,11,-1,-1,13,15,17,-1,19,-1,-1,-1,-1,-1,-1,-1,-1],"loss_changes":[1.724886E2,9.4998215E1,5.2654373E1,1.046695E2,1.23871864E2,3.0955956E1,0E0,0E0,1.0909842E2,1.9211333E2,9.7474594E1,0E0,2.1208298E1,0E0,0E0,0E0,0E0,0E0,0E0,0E0,0E0],"parents":[2147483647,0,0,1,1,2,2,3,3,4,4,5,5,8,8,9,9,10,10,12,12],"right_children":[2,4,6,8,10,12,-1,-1,14,16,18,-1,20,-1,-1,-1,-1,-1,-1,-1,-1],"split_conditions":[3.1E1,3.661567E-1,4.1E1,1.9E1,2.3875E1,8.7628864E-2,3.1478158E-1,2.7838606E-1,1.71875E-1,1.6931216E-1,1.2674419E0,-1.1551752E-1,2.5208217E-1,-2.4714941E-2,7.407995E-2,-9.764405E-2,2.1382688E-1,9.033872E-2,-6.535149E-2,7.754592E-2,2.1042399E-1],"split_indices":[2,5,0,1,2,8,0,0,8,7,3,0,4,0,0,0,0,0,0,0,0],"split_type":[0,0,0,0,0,0,0,0,0,0,0,0,0,0,0,0,0,0,0,0,0],"sum_hessian":[5.92E2,5.58E2,3.4E1,4.45E2,1.13E2,3.2E1,2E0,2E0,4.43E2,3.3E1,8E1,1E0,3.1E1,4.14E2,2.9E1,2.8E1,5E0,6.9E1,1.1E1,2.8E1,3E0],"tree_param":{"num_deleted":"0","num_feature":"14","num_nodes":"21","size_leaf_vector":"1"}},{"base_weights":[2.0691866E-2,-2.4489306E-1,1.0271776E0,3.29229E-1,-6.6403055E-1,1.1919328E0,-3.0076304E-1,2.7091143E0,1.4832781E-1,-3.5230458E-1,-2.4117475E0,1.5336946E0,-1.5540656E0,1.7752264E-1,-7.7963896E-2,5.931098E-2,-1.9645968E-2,-2.6835872E-2,1.2788019E-1,-1.4690232E-1,2.8214116E-2,8.95708E-2,-9.719814E-2,6.991743E-2,-1.437433E-1],"categories":[],"categories_nodes":[],"categories_segments":[],"categories_sizes":[],"default_left":[0,0,0,0,0,0,0,0,0,0,0,0,0,0,0,0,0,0,0,0,0,0,0,0,0],"id":31,"left_children":[1,3,5,7,9,11,-1,13,15,17,19,21,23,-1,-1,-1,-1,-1,-1,-1,-1,-1,-1,-1,-1],"loss_changes":[1.5876486E2,1.1331757E2,1.5104433E2,8.527245E1,1.4733832E2,1.16877716E2,0E0,5.581241E1,1.04952705E2,1.2586958E2,6.587543E1,1.01175476E2,5.861377E1,0E0,0E0,0E0,0E0,0E0,0E0,0E0,0E0,0E0,0E0,0E0,0E0],"parents":[2147483647,0,0,1,1,2,2,3,3,4,4,5,5,7,7,8,8,9,9,10,10,11,11,12,12],"right_children":[2,4,6,8,10,12,-1,14,16,18,20,22,24,-1,-1,-1,-1,-1,-1,-1,-1,-1,-1,-1,-1],"split_conditions":[3.1E1,1.2820514E-1,3.45E-1,1.3170731E-1,1.8781726E-1,1.2763158E0,-3.0076304E-1,1.1981567E-1,1.3227513E-1,1.8461539E-1,2.1925133E-1,1.2727273E-1,3.3E1,1.7752264E-1,-7.7963896E-2,5.931098E-2,-1.9645968E-2,-2.6835872E-2,1.2788019E-1,-1.4690232E-1,2.8214116E-2,8.95708E-2,-9.719814E-2,6.991743E-2,-1.437433E-1],"split_indices":[0,7,12,13,13,3,0,10,8,13,13,10,0,0,0,0,0,0,0,0,0,0,0,0,0],"split_type":[0,0,0,0,0,0,0,0,0,0,0,0,0,0,0,0,0,0,0,0,0,0,0,0,0],"sum_hessian":[5.92E2,4.69E2,1.23E2,1.98E2,2.71E2,1.21E2,2E0,1.3E1,1.85E2,2.31E2,4E1,1.08E2,1.3E1,1.1E1,2E0,6.3E1,1.22E2,2.18E2,1.3E1,3.4E1,6E0,1.01E2,7E0,4E0,9E0],"tree_param":{"num_deleted":"0","num_feature":"14","num_nodes":"25","size_leaf_vector":"1"}},{"base_weights":[1.9217901E-2,-1.0484826E-1,2.0001826E0,-1.1924195E0,4.567957E-2,1.567419E0,3.0469272E-1,-5.455269E-1,-3.1010075E0,-2.67894E-1,7.866936E-2,-1.1411238E-1,1.7590413E0,-4.6029847E-2,2.0927313E-1,-1.9624738E-1,-6.8162166E-2,1.0542649E-2,-6.165826E-2,6.9578245E-2,1.9917431E-1],"categories":[],"categories_nodes":[],"categories_segments":[],"categories_sizes":[],"default_left":[0,0,0,0,0,0,0,0,0,0,0,0,0,0,0,0,0,0,0,0,0],"id":32,"left_children":[1,3,5,7,9,11,-1,13,15,-1,17,-1,19,-1,-1,-1,-1,-1,-1,-1,-1],"loss_changes":[1.4595174E2,9.1568214E1,5.24541E1,8.22646E1,8.812656E1,2.835807E1,0E0,9.612464E1,1.8990173E1,0E0,8.522749E1,0E0,2.0614525E1,0E0,0E0,0E0,0E0,0E0,0E0,0E0,0E0],"parents":[2147483647,0,0,1,1,2,2,3,3,4,4,5,5,7,7,8,8,10,10,12,12],"right_children":[2,4,6,8,10,12,-1,14,16,-1,18,-1,20,-1,-1,-1,-1,-1,-1,-1,-1],"split_conditions":[3.1E1,3.0347756E-1,1.3E-1,2.9815102E-1,4.4871796E-2,8.7628864E-2,3.0469272E-1,3.314917E-1,1.6959064E-1,-2.67894E-1,1.2987013E-1,-1.1411238E-1,2.5208217E-1,-4.6029847E-2,2.0927313E-1,-1.9624738E-1,-6.8162166E-2,1.0542649E-2,-6.165826E-2,6.9578245E-2,1.9917431E-1],"split_indices":[2,5,7,5,9,8,0,12,13,0,10,0,4,0,0,0,0,0,0,0,0],"split_type":[0,0,0,0,0,0,0,0,0,0,0,0,0,0,0,0,0,0,0,0,0],"sum_hessian":[5.92E2,5.58E2,3.4E1,6.7E1,4.91E2,3.2E1,2E0,5.1E1,1.6E1,2E0,4.89E2,1E0,3.1E1,4.8E1,3E0,1E1,6E0,4.45E2,4.4E1,2.8E1,3E0],"tree_param":{"num_deleted":"0","num_feature":"14","num_nodes":"21","size_leaf_vector":"1"}},{"base_weights":[1.8323634E-2,-1.5216875E-1,1.4055874E0,2.0235951E-1,-8.1249356E-1,3.5855777E0,6.205788E-1,1.17803745E-1,3.749546E0,-5.5461425E-1,-3.3283231E0,1.7239944E0,6.7111483E0,2.0603395E0,-2.818737E-1,-7.834827E-3,6.477282E-2,7.583958E-2,2.8015515E-1,-6.093219E-2,5.7234097E-2,-2.602342E-1,-5.4107435E-2,-9.6299775E-2,1.323296E-1,3.8887E-1,3.4497213E-2,-5.982784E-2,1.5043078E-1,1.6093227E-1,-5.394223E-2],"categories":[],"categories_nodes":[],"categories_segments":[],"categories_sizes":[],"default_left":[0,0,0,0,0,0,0,0,0,0,0,0,0,0,0,0,0,0,0,0,0,0,0,0,0,0,0,0,0,0,0],"id":33,"left_children":[1,3,5,7,9,11,13,15,17,19,21,23,25,27,29,-1,-1,-1,-1,-1,-1,-1,-1,-1,-1,-1,-1,-1,-1,-1,-1],"loss_changes":[1.4046902E2,1.2400533E2,1.090101E2,1.03035904E2,1.1817841E2,8.7344696E1,6.4247215E1,1.0946689E2,2.4609558E1,1.9209166E2,6.601654E1,4.5506985E1,3.3154755E1,6.2280273E1,8.995658E1,0E0,0E0,0E0,0E0,0E0,0E0,0E0,0E0,0E0,0E0,0E0,0E0,0E0,0E0,0E0,0E0],"parents":[2147483647,0,0,1,1,2,2,3,3,4,4,5,5,6,6,7,7,8,8,9,9,10,10,11,11,12,12,13,13,14,14],"right_children":[2,4,6,8,10,12,14,16,18,20,22,24,26,28,30,-1,-1,-1,-1,-1,-1,-1,-1,-1,-1,-1,-1,-1,-1,-1,-1],"split_conditions":[1E0,1.0810811E-1,3.9007094E-2,1.0752688E-1,1.2E0,1.2820514E-1,1.1235955E-1,3.661567E-1,2.4E1,2.575E1,1.4577703E-1,1.742437E-1,4.6E1,1.4096916E-1,9.247312E-1,-7.834827E-3,6.477282E-2,7.583958E-2,2.8015515E-1,-6.093219E-2,5.7234097E-2,-2.602342E-1,-5.4107435E-2,-9.6299775E-2,1.323296E-1,3.8887E-1,3.4497213E-2,-5.982784E-2,1.5043078E-1,1.6093227E-1,-5.394223E-2],"split_indices":[6,9,11,9,3,7,7,5,0,1,4,4,0,8,3,0,0,0,0,0,0,0,0,0,0,0,0,0,0,0,0],"split_type":[0,0,0,0,0,0,0,0,0,0,0,0,0,0,0,0,0,0,0,0,0,0,0,0,0,0,0,0,0,0,0],"sum_hessian":[5.92E2,5.28E2,6.4E1,3.44E2,1.84E2,1.6E1,4.8E1,3.37E2,7E0,1.68E2,1.6E1,1.1E1,5E0,1.8E1,3E1,2.74E2,6.3E1,4E0,3E0,1.21E2,4.7E1,8E0,8E0,2E0,9E0,4E0,1E0,4E0,1.4E1,5E0,2.5E1],"tree_param":{"num_deleted":"0","num_feature":"14","num_nodes":"31","size_leaf_vector":"1"}},{"base_weights":[1.8675586E-2,-1.6800624E-1,1.184071E0,-3.1244236E-1,9.904301E-1,9.4161934E-1,4.7295017E0,-2.3557068E-1,-2.7225642E0,5.143403E-1,2.934593E0,7.6145244E-1,4.084345E0,1.2980187E-1,3.3158398E-1,7.100133E-2,-1.9497393E-2,-2.478628E-1,-4.6513136E-2,-2.2466062E-2,1.2047585E-1,2.1897559E-1,-3.444464E-2,6.4702E-2,-6.398178E-3,4.542656E-2,2.4200527E-1],"categories":[],"categories_nodes":[],"categories_segments":[],"categories_sizes":[],"default_left":[0,0,0,0,0,0,0,0,0,0,0,0,0,0,0,0,0,0,0,0,0,0,0,0,0,0,0],"id":34,"left_children":[1,3,5,7,9,11,13,15,17,19,21,23,25,-1,-1,-1,-1,-1,-1,-1,-1,-1,-1,-1,-1,-1,-1],"loss_changes":[1.2921092E2,8.597732E1,6.603342E1,8.3841805E1,5.1249607E1,4.1054764E1,3.075058E0,1.1377851E2,5.146183E1,8.691916E1,6.0609093E1,3.5692482E1,5.203232E0,0E0,0E0,0E0,0E0,0E0,0E0,0E0,0E0,0E0,0E0,0E0,0E0,0E0,0E0],"parents":[2147483647,0,0,1,1,2,2,3,3,4,4,5,5,6,6,7,7,8,8,9,9,10,10,11,11,12,12],"right_children":[2,4,6,8,10,12,14,16,18,20,22,24,26,-1,-1,-1,-1,-1,-1,-1,-1,-1,-1,-1,-1,-1,-1],"split_conditions":[2.2826087E-1,1E0,1.2820514E-1,2.975E1,1.5025906E-1,2.7359906E-1,3.6E1,1.3425925E-1,1.4249082E-1,1.742437E-1,3.2E1,3.3193725E-1,2.975E1,1.2980187E-1,3.3158398E-1,7.100133E-2,-1.9497393E-2,-2.478628E-1,-4.6513136E-2,-2.2466062E-2,1.2047585E-1,2.1897559E-1,-3.444464E-2,6.4702E-2,-6.398178E-3,4.542656E-2,2.4200527E-1],"split_indices":[13,6,7,1,7,4,0,13,4,4,0,5,1,0,0,0,0,0,0,0,0,0,0,0,0,0,0],"split_type":[0,0,0,0,0,0,0,0,0,0,0,0,0,0,0,0,0,0,0,0,0,0,0,0,0,0,0],"sum_hessian":[5.92E2,5.11E2,8.1E1,4.55E2,5.6E1,7.7E1,4E0,4.42E2,1.3E1,4.6E1,1E1,7.4E1,3E0,3E0,1E0,3.7E1,4.05E2,5E0,8E0,3.1E1,1.5E1,7E0,3E0,4.6E1,2.8E1,1E0,2E0],"tree_param":{"num_deleted":"0","num_feature":"14","num_nodes":"27","size_leaf_vector":"1"}},{"base_weights":[1.9169526E-2,-2.1622804E-1,9.112476E-1,3.1396165E-1,-6.0332924E-1,1.067558E0,-2.8745636E-1,1.3386635E-1,2.6842303E0,-3.0671656E-1,-2.2670074E0,1.2475245E0,-3.3931618E0,-4.475214E-2,3.469916E-2,-1.168203E-1,1.8578519E-1,-2.3994695E-2,1.2120899E-1,-8.288901E-2,-2.4946423E-1,7.694424E-2,-6.1207283E-2,8.724118E-3,-2.1643467E-1],"categories":[],"categories_nodes":[],"categories_segments":[],"categories_sizes":[],"default_left":[0,0,0,0,0,0,0,0,0,0,0,0,0,0,0,0,0,0,0,0,0,0,0,0,0],"id":35,"left_children":[1,3,5,7,9,11,-1,13,15,17,19,21,23,-1,-1,-1,-1,-1,-1,-1,-1,-1,-1,-1,-1],"loss_changes":[1.2472289E2,9.665084E1,1.3523224E2,8.4588646E1,1.3352795E2,1.02172195E2,0E0,1.0781468E2,8.118252E1,1.1088295E2,5.9726746E1,8.68611E1,1.74435E1,0E0,0E0,0E0,0E0,0E0,0E0,0E0,0E0,0E0,0E0,0E0,0E0],"parents":[2147483647,0,0,1,1,2,2,3,3,4,4,5,5,7,7,8,8,9,9,10,10,11,11,12,12],"right_children":[2,4,6,8,10,12,-1,14,16,18,20,22,24,-1,-1,-1,-1,-1,-1,-1,-1,-1,-1,-1,-1],"split_conditions":[3.1E1,1.2820514E-1,3.45E-1,1.761658E-1,1.8781726E-1,1.3537118E-1,-2.8745636E-1,2.4E1,7.305936E-2,1.8461539E-1,3.1553397E-1,1.2763158E0,1.6439348E-1,-4.475214E-2,3.469916E-2,-1.168203E-1,1.8578519E-1,-2.3994695E-2,1.2120899E-1,-8.288901E-2,-2.4946423E-1,7.694424E-2,-6.1207283E-2,8.724118E-3,-2.1643467E-1],"split_indices":[0,7,12,8,13,10,0,2,9,13,12,3,4,0,0,0,0,0,0,0,0,0,0,0,0],"split_type":[0,0,0,0,0,0,0,0,0,0,0,0,0,0,0,0,0,0,0,0,0,0,0,0,0],"sum_hessian":[5.92E2,4.69E2,1.23E2,1.98E2,2.71E2,1.21E2,2E0,1.85E2,1.3E1,2.31E2,4E1,1.17E2,4E0,6.5E1,1.2E2,2E0,1.1E1,2.18E2,1.3E1,3.4E1,6E0,1.05E2,1.2E1,1E0,3E0],"tree_param":{"num_deleted":"0","num_feature":"14","num_nodes":"25","size_leaf_vector":"1"}},{"base_weights":[1.7105484E-2,-1.3619868E-1,1.2645024E0,1.9459999E-1,-7.523573E-1,3.3070781E0,5.3004754E-1,1.1398007E-1,3.576466E0,-8.641689E-1,2.2615801E-1,1.5461613E0,6.2777324E0,1.8965527E0,-3.2458618E-1,-7.2326967E-3,6.117586E-2,7.090429E-2,2.6901624E-1,-2.7890487E-2,-1.4288959E-1,-9.189908E-2,1.2033941E-1,3.6225352E-1,3.6026098E-2,1.9948994E-1,1.7150458E-2,1.5127882E-1,-5.4260828E-2],"categories":[],"categories_nodes":[],"categories_segments":[],"categories_sizes":[],"default_left":[0,0,0,0,0,0,0,0,0,0,0,0,0,0,0,0,0,0,0,0,0,0,0,0,0,0,0,0,0],"id":36,"left_children":[1,3,5,7,9,11,13,15,17,19,-1,21,23,25,27,-1,-1,-1,-1,-1,-1,-1,-1,-1,-1,-1,-1,-1,-1],"loss_changes":[1.135723E2,1.07969536E2,9.575877E1,9.3655136E1,1.1303362E2,7.922189E1,5.784081E1,9.717083E1,2.351754E1,1.0956506E2,0E0,3.9373436E1,2.7033966E1,6.041848E1,8.2278694E1,0E0,0E0,0E0,0E0,0E0,0E0,0E0,0E0,0E0,0E0,0E0,0E0,0E0,0E0],"parents":[2147483647,0,0,1,1,2,2,3,3,4,4,5,5,6,6,7,7,8,8,9,9,11,11,12,12,13,13,14,14],"right_children":[2,4,6,8,10,12,14,16,18,20,-1,22,24,26,28,-1,-1,-1,-1,-1,-1,-1,-1,-1,-1,-1,-1,-1,-1],"split_conditions":[1E0,1.0810811E-1,3.9007094E-2,1.0752688E-1,9.947644E-2,1.2820514E-1,1.1235955E-1,3.661567E-1,2.4E1,1.1326531E0,2.2615801E-1,1.742437E-1,4.6E1,2.9787233E-1,9.247312E-1,-7.2326967E-3,6.117586E-2,7.090429E-2,2.6901624E-1,-2.7890487E-2,-1.4288959E-1,-9.189908E-2,1.2033941E-1,3.6225352E-1,3.6026098E-2,1.9948994E-1,1.7150458E-2,1.5127882E-1,-5.4260828E-2],"split_indices":[6,9,11,9,11,7,7,5,0,3,0,4,0,12,3,0,0,0,0,0,0,0,0,0,0,0,0,0,0],"split_type":[0,0,0,0,0,0,0,0,0,0,0,0,0,0,0,0,0,0,0,0,0,0,0,0,0,0,0,0,0],"sum_hessian":[5.92E2,5.28E2,6.4E1,3.44E2,1.84E2,1.6E1,4.8E1,3.37E2,7E0,1.81E2,3E0,1.1E1,5E0,1.8E1,3E1,2.74E2,6.3E1,4E0,3E0,1.58E2,2.3E1,2E0,9E0,4E0,1E0,7E0,1.1E1,5E0,2.5E1],"tree_param":{"num_deleted":"0","num_feature":"14","num_nodes":"29","size_leaf_vector":"1"}},{"base_weights":[1.825638E-2,-3.803891E-1,4.837611E-1,5.0970323E-2,-1.5005575E0,2.5715055E0,2.3567837E-1,-3.374701E0,2.0435931E-1,-1.9594061E0,1.6070046E0,-1.2224817E0,3.4128563E0,-9.245628E-1,7.402273E-1,5.9043217E-2,-2.3306003E-1,8.719114E-2,-1.0278969E-2,-1.1261665E-1,2.0114103E-1,-6.299151E-2,1.9173597E-1,1.8683672E-3,-1.2473933E-1,9.324667E-2,2.8927565E-1,-2.0359682E-3,-1.4005168E-1,-1.7612179E-1,4.5775946E-2],"categories":[],"categories_nodes":[],"categories_segments":[],"categories_sizes":[],"default_left":[0,0,0,0,0,0,0,0,0,0,0,0,0,0,0,0,0,0,0,0,0,0,0,0,0,0,0,0,0,0,0],"id":37,"left_children":[1,3,5,7,9,11,13,15,17,19,21,23,25,27,29,-1,-1,-1,-1,-1,-1,-1,-1,-1,-1,-1,-1,-1,-1,-1,-1],"loss_changes":[1.1022783E2,1.5469896E2,1.4130768E2,1.2259643E2,1.3005392E2,9.6742294E1,1.446924E2,6.4111565E1,1.410906E2,1.457443E2,8.146899E1,9.710696E0,7.735495E1,1.24273895E2,1.3174484E2,0E0,0E0,0E0,0E0,0E0,0E0,0E0,0E0,0E0,0E0,0E0,0E0,0E0,0E0,0E0,0E0],"parents":[2147483647,0,0,1,1,2,2,3,3,4,4,5,5,6,6,7,7,8,8,9,9,10,10,11,11,12,12,13,13,14,14],"right_children":[2,4,6,8,10,12,14,16,18,20,22,24,26,28,30,-1,-1,-1,-1,-1,-1,-1,-1,-1,-1,-1,-1,-1,-1,-1,-1],"split_conditions":[2.55E1,1.1764706E-1,3.9007094E-2,1.0074627E-1,1.6759777E-1,2.4E1,1.22727275E-1,2.25E1,1.2376238E-1,1.9711539E-1,8.942308E-1,2.7E1,1.2820514E-1,2.8899083E-1,4.310345E-2,5.9043217E-2,-2.3306003E-1,8.719114E-2,-1.0278969E-2,-1.1261665E-1,2.0114103E-1,-6.299151E-2,1.9173597E-1,1.8683672E-3,-1.2473933E-1,9.324667E-2,2.8927565E-1,-2.0359682E-3,-1.4005168E-1,-1.7612179E-1,4.5775946E-2],"split_indices":[2,9,11,7,8,0,8,2,7,7,3,1,7,12,11,0,0,0,0,0,0,0,0,0,0,0,0,0,0,0,0],"split_type":[0,0,0,0,0,0,0,0,0,0,0,0,0,0,0,0,0,0,0,0,0,0,0,0,0,0,0,0,0,0,0],"sum_hessian":[5.92E2,3.19E2,2.73E2,2.31E2,8.8E1,2.8E1,2.45E2,9E0,2.22E2,7.7E1,1.1E1,5E0,2.3E1,7.4E1,1.71E2,2E0,7E0,4.6E1,1.76E2,7.4E1,3E0,5E0,6E0,3E0,2E0,1.5E1,8E0,5.1E1,2.3E1,6E0,1.65E2],"tree_param":{"num_deleted":"0","num_feature":"14","num_nodes":"31","size_leaf_vector":"1"}},{"base_weights":[1.7524501E-2,-3.6099398E-1,4.5952594E-1,4.800317E-2,-1.4230877E0,2.4518836E0,2.227865E-1,-4.3698248E-1,1.0492498E0,-1.8603002E0,1.5373832E0,-1.1818367E0,3.258152E0,-8.8022995E-1,7.0245767E-1,3.8915105E-2,-6.6347525E-2,1.9788187E-2,1.8401878E-1,-1.0706085E-1,1.9359823E-1,-6.036684E-2,1.8351871E-1,1.7982721E-3,-1.2058138E-1,-7.265425E-3,2.0807235E-1,-1.9361662E-3,-1.333409E-1,4.2843007E-2,-1.8560761E-1],"categories":[],"categories_nodes":[],"categories_segments":[],"categories_sizes":[],"default_left":[0,0,0,0,0,0,0,0,0,0,0,0,0,0,0,0,0,0,0,0,0,0,0,0,0,0,0,0,0,0,0],"id":38,"left_children":[1,3,5,7,9,11,13,15,17,19,21,23,25,27,29,-1,-1,-1,-1,-1,-1,-1,-1,-1,-1,-1,-1,-1,-1,-1,-1],"loss_changes":[9.9378174E1,1.3907419E2,1.2869122E2,1.1311544E2,1.1805754E2,8.8813446E1,1.307733E2,1.7083838E2,1.2921814E2,1.3389328E2,7.468494E1,9.072585E0,7.4388596E1,1.12653656E2,1.2042054E2,0E0,0E0,0E0,0E0,0E0,0E0,0E0,0E0,0E0,0E0,0E0,0E0,0E0,0E0,0E0,0E0],"parents":[2147483647,0,0,1,1,2,2,3,3,4,4,5,5,6,6,7,7,8,8,9,9,10,10,11,11,12,12,13,13,14,14],"right_children":[2,4,6,8,10,12,14,16,18,20,22,24,26,28,30,-1,-1,-1,-1,-1,-1,-1,-1,-1,-1,-1,-1,-1,-1,-1,-1],"split_conditions":[2.55E1,1.1764706E-1,3.9007094E-2,3.515498E-1,1.6759777E-1,2.4E1,1.22727275E-1,1.5345459E-1,8.3798885E-2,1.9711539E-1,8.942308E-1,2.7E1,9.313726E-2,2.8899083E-1,1.2987013E-1,3.8915105E-2,-6.6347525E-2,1.9788187E-2,1.8401878E-1,-1.0706085E-1,1.9359823E-1,-6.036684E-2,1.8351871E-1,1.7982721E-3,-1.2058138E-1,-7.265425E-3,2.0807235E-1,-1.9361662E-3,-1.333409E-1,4.2843007E-2,-1.8560761E-1],"split_indices":[2,9,11,5,8,0,8,4,11,7,3,1,7,12,10,0,0,0,0,0,0,0,0,0,0,0,0,0,0,0,0],"split_type":[0,0,0,0,0,0,0,0,0,0,0,0,0,0,0,0,0,0,0,0,0,0,0,0,0,0,0,0,0,0,0],"sum_hessian":[5.92E2,3.19E2,2.73E2,2.31E2,8.8E1,2.8E1,2.45E2,1.56E2,7.5E1,7.7E1,1.1E1,5E0,2.3E1,7.4E1,1.71E2,6.6E1,9E1,6.1E1,1.4E1,7.4E1,3E0,5E0,6E0,3E0,2E0,5E0,1.8E1,5.1E1,2.3E1,1.66E2,5E0],"tree_param":{"num_deleted":"0","num_feature":"14","num_nodes":"31","size_leaf_vector":"1"}},{"base_weights":[1.696865E-2,-1.2233335E-1,1.1504116E0,1.5930133E-1,-6.468827E-1,2.9248698E0,5.113054E-1,-2.588957E-1,2.0551807E-1,-1.0672617E0,7.24497E-1,1.335682E0,5.615767E0,3.0219479E0,9.070534E-2,2.4987526E-2,-3.3300683E-2,-6.566691E-2,1.1561393E-1,-1.5465897E-1,7.6517984E-2,-9.17018E-2,1.07651465E-1,3.2786936E-1,2.2691727E-2,1.9944891E-1,-6.950583E-2,-9.188356E-2,5.4250684E-2],"categories":[],"categories_nodes":[],"categories_segments":[],"categories_sizes":[],"default_left":[0,0,0,0,0,0,0,0,0,0,0,0,0,0,0,0,0,0,0,0,0,0,0,0,0,0,0,0,0],"id":39,"left_children":[1,3,5,7,9,11,13,-1,15,17,19,21,23,25,27,-1,-1,-1,-1,-1,-1,-1,-1,-1,-1,-1,-1,-1,-1],"loss_changes":[9.377002E1,7.825289E1,7.221888E1,8.6164856E1,1.074256E2,6.5196915E1,5.1468735E1,0E0,8.828933E1,1.2112749E2,1.4010068E2,3.503785E1,2.6187485E1,3.5411343E1,8.444213E1,0E0,0E0,0E0,0E0,0E0,0E0,0E0,0E0,0E0,0E0,0E0,0E0,0E0,0E0],"parents":[2147483647,0,0,1,1,2,2,3,3,4,4,5,5,6,6,8,8,9,9,10,10,11,11,12,12,13,13,14,14],"right_children":[2,4,6,8,10,12,14,-1,16,18,20,22,24,26,28,-1,-1,-1,-1,-1,-1,-1,-1,-1,-1,-1,-1,-1,-1],"split_conditions":[1E0,1.0810811E-1,3.9007094E-2,4.4871796E-2,1.1413044E-1,1.2820514E-1,9.247312E-1,-2.588957E-1,1.1304348E-1,8.173077E-2,1.3154991E-1,1.742437E-1,4.6E1,2.8625E1,1.4222223E-1,2.4987526E-2,-3.3300683E-2,-6.566691E-2,1.1561393E-1,-1.5465897E-1,7.6517984E-2,-9.17018E-2,1.07651465E-1,3.2786936E-1,2.2691727E-2,1.9944891E-1,-6.950583E-2,-9.188356E-2,5.4250684E-2],"split_indices":[6,9,11,9,10,7,3,0,10,11,4,4,0,2,9,0,0,0,0,0,0,0,0,0,0,0,0,0,0],"split_type":[0,0,0,0,0,0,0,0,0,0,0,0,0,0,0,0,0,0,0,0,0,0,0,0,0,0,0,0,0],"sum_hessian":[5.92E2,5.28E2,6.4E1,3.44E2,1.84E2,1.6E1,4.8E1,2E0,3.42E2,1.41E2,4.3E1,1.1E1,5E0,6E0,4.2E1,2.56E2,8.6E1,1.32E2,9E0,7E0,3.6E1,2E0,9E0,4E0,1E0,5E0,1E0,1.4E1,2.8E1],"tree_param":{"num_deleted":"0","num_feature":"14","num_nodes":"29","size_leaf_vector":"1"}},{"base_weights":[1.6395386E-2,-1.3705605E-1,9.743312E-1,-2.502658E-1,-1.0815048E-1,7.600847E-1,4.121711E0,3.010715E-1,-1.320228E-1,5.868337E-1,3.8185186E0,8.629208E-2,2.5718385E-1,-5.537049E-2,2.871603E-4,4.2931814E-2,-4.558414E-2,4.0764045E-2,2.2739188E-1],"categories":[],"categories_nodes":[],"categories_segments":[],"categories_sizes":[],"default_left":[0,0,0,0,0,0,0,0,0,0,0,0,0,0,0,0,0,0,0],"id":40,"left_children":[1,3,5,-1,7,9,11,-1,13,15,17,-1,-1,-1,-1,-1,-1,-1,-1],"loss_changes":[8.7302536E1,7.150721E1,5.2160995E1,0E0,7.542189E1,3.9089535E1,3.3653107E0,0E0,6.840333E1,3.1330349E1,5.0535088E0,0E0,0E0,0E0,0E0,0E0,0E0,0E0,0E0],"parents":[2147483647,0,0,1,1,2,2,4,4,5,5,6,6,8,8,9,9,10,10],"right_children":[2,4,6,-1,8,10,12,-1,14,16,18,-1,-1,-1,-1,-1,-1,-1,-1],"split_conditions":[2.2826087E-1,4.4871796E-2,1.2820514E-1,-2.502658E-1,4.6692606E-2,2.7359906E-1,1.0168067E0,3.010715E-1,3.0347756E-1,8.585858E-2,2.975E1,8.629208E-2,2.5718385E-1,-5.537049E-2,2.871603E-4,4.2931814E-2,-4.558414E-2,4.0764045E-2,2.2739188E-1],"split_indices":[13,9,7,0,9,4,3,0,5,11,1,0,0,0,0,0,0,0,0],"split_type":[0,0,0,0,0,0,0,0,0,0,0,0,0,0,0,0,0,0,0],"sum_hessian":[5.92E2,5.11E2,8.1E1,2E0,5.09E2,7.7E1,4E0,1E0,5.08E2,7.4E1,3E0,2E0,2E0,6.2E1,4.46E2,6.3E1,1.1E1,1E0,2E0],"tree_param":{"num_deleted":"0","num_feature":"14","num_nodes":"19","size_leaf_vector":"1"}},{"base_weights":[1.659466E-2,-1.1570111E-1,1.0930234E0,-1.5221335E-2,-1.4513992E0,2.7646945E0,4.9074927E-1,-3.4616017E-1,4.1430035E-1,6.083908E-2,-3.0510306E0,1.2486423E0,5.336016E0,-1.1174276E0,1.1025195E0,-3.3894446E-2,4.7886427E-2,-1.3658328E-1,3.3195306E-2,-1.8964516E-1,6.306656E-2,-1.9171709E-1,-1.23776635E-2,-8.865468E-2,1.01514935E-1,3.1131408E-1,2.2117233E-2,-1.11147955E-1,1.1010704E-1,1.6106494E-1,1.3847619E-2],"categories":[],"categories_nodes":[],"categories_segments":[],"categories_sizes":[],"default_left":[0,0,0,0,0,0,0,0,0,0,0,0,0,0,0,0,0,0,0,0,0,0,0,0,0,0,0,0,0,0,0],"id":41,"left_children":[1,3,5,7,9,11,13,15,17,19,21,23,25,27,29,-1,-1,-1,-1,-1,-1,-1,-1,-1,-1,-1,-1,-1,-1,-1,-1],"loss_changes":[8.45738E1,7.0975334E1,6.408549E1,7.022111E1,8.968948E1,5.960762E1,4.9439884E1,1.2132713E2,1.7064261E2,9.7311844E1,3.857872E1,3.1943426E1,2.3385834E1,5.627369E1,6.2078854E1,0E0,0E0,0E0,0E0,0E0,0E0,0E0,0E0,0E0,0E0,0E0,0E0,0E0,0E0,0E0,0E0],"parents":[2147483647,0,0,1,1,2,2,3,3,4,4,5,5,6,6,7,7,8,8,9,9,10,10,11,11,12,12,13,13,14,14],"right_children":[2,4,6,8,10,12,14,16,18,20,22,24,26,28,30,-1,-1,-1,-1,-1,-1,-1,-1,-1,-1,-1,-1,-1,-1,-1,-1],"split_conditions":[1E0,1.2282609E0,3.9007094E-2,2.525E1,1.3661203E-1,1.2820514E-1,2.6373628E-1,8.219178E-2,2E1,1.1E-1,1.8621479E-1,1.742437E-1,4.6E1,1.6759777E-1,2.625E1,-3.3894446E-2,4.7886427E-2,-1.3658328E-1,3.3195306E-2,-1.8964516E-1,6.306656E-2,-1.9171709E-1,-1.23776635E-2,-8.865468E-2,1.01514935E-1,3.1131408E-1,2.2117233E-2,-1.11147955E-1,1.1010704E-1,1.6106494E-1,1.3847619E-2],"split_indices":[6,3,11,1,7,7,12,11,0,7,4,4,0,8,2,0,0,0,0,0,0,0,0,0,0,0,0,0,0,0,0],"split_type":[0,0,0,0,0,0,0,0,0,0,0,0,0,0,0,0,0,0,0,0,0,0,0,0,0,0,0,0,0,0,0],"sum_hessian":[5.92E2,5.28E2,6.4E1,4.92E2,3.6E1,1.6E1,4.8E1,2.78E2,2.14E2,1.9E1,1.7E1,1.1E1,5E0,1.3E1,3.5E1,2.22E2,5.6E1,1.5E1,1.99E2,4E0,1.5E1,1.3E1,4E0,2E0,9E0,4E0,1E0,1E1,3E0,9E0,2.6E1],"tree_param":{"num_deleted":"0","num_feature":"14","num_nodes":"31","size_leaf_vector":"1"}},{"base_weights":[1.5933407E-2,-1.1071051E-1,1.0463749E0,-1.4150538E-1,3.9664927E0,2.6468294E0,4.6976066E-1,-1.09506175E-1,-2.8417662E-1,6.928962E-2,2.9271483E-1,1.1872811E0,5.124788E0,2.8530924E0,7.085175E-2,7.7226767E-3,-2.970147E-2,-8.569949E-2,9.694672E-2,2.9886156E-1,2.1564294E-2,1.891376E-1,-6.8121575E-2,-8.850144E-2,5.102941E-2],"categories":[],"categories_nodes":[],"categories_segments":[],"categories_sizes":[],"default_left":[0,0,0,0,0,0,0,0,0,0,0,0,0,0,0,0,0,0,0,0,0,0,0,0,0],"id":42,"left_children":[1,3,5,7,9,11,13,15,-1,-1,-1,17,19,21,23,-1,-1,-1,-1,-1,-1,-1,-1,-1,-1],"loss_changes":[7.750185E1,6.69809E1,5.874153E1,9.265871E1,1.1374584E1,5.539933E1,4.6383736E1,6.710852E1,0E0,0E0,0E0,2.9492306E1,2.1427765E1,3.2586746E1,7.6985565E1,0E0,0E0,0E0,0E0,0E0,0E0,0E0,0E0,0E0,0E0],"parents":[2147483647,0,0,1,1,2,2,3,3,4,4,5,5,6,6,7,7,11,11,12,12,13,13,14,14],"right_children":[2,4,6,8,10,12,14,16,-1,-1,-1,18,20,22,24,-1,-1,-1,-1,-1,-1,-1,-1,-1,-1],"split_conditions":[1E0,1.14832535E-1,3.9007094E-2,1.1004785E-1,2.4E1,1.2820514E-1,9.247312E-1,1.0810811E-1,-2.8417662E-1,6.928962E-2,2.9271483E-1,1.742437E-1,4.6E1,2.8625E1,1.4222223E-1,7.7226767E-3,-2.970147E-2,-8.569949E-2,9.694672E-2,2.9886156E-1,2.1564294E-2,1.891376E-1,-6.8121575E-2,-8.850144E-2,5.102941E-2],"split_indices":[6,11,11,11,0,7,3,9,0,0,0,4,0,2,9,0,0,0,0,0,0,0,0,0,0],"split_type":[0,0,0,0,0,0,0,0,0,0,0,0,0,0,0,0,0,0,0,0,0,0,0,0,0],"sum_hessian":[5.92E2,5.28E2,6.4E1,5.25E2,3E0,1.6E1,4.8E1,5.23E2,2E0,2E0,1E0,1.1E1,5E0,6E0,4.2E1,3.39E2,1.84E2,2E0,9E0,4E0,1E0,5E0,1E0,1.4E1,2.8E1],"tree_param":{"num_deleted":"0","num_feature":"14","num_nodes":"25","size_leaf_vector":"1"}},{"base_weights":[1.5930945E-2,-1.6431506E-1,6.9899297E-1,3.0805236E-1,-5.0930333E-1,8.464928E-1,-2.7661657E-1,1.4752084E-1,2.4188247E0,-2.3170105E-1,-2.067704E0,1.0095409E0,-3.1707406E0,3.925657E-2,-3.4435213E-2,-1.15597956E-1,1.6999759E-1,-1.9552132E-2,1.1387032E-1,-1.2857193E-1,3.7317824E-2,6.2707864E-2,-5.3134035E-2,5.8146953E-3,-2.0107864E-1],"categories":[],"categories_nodes":[],"categories_segments":[],"categories_sizes":[],"default_left":[0,0,0,0,0,0,0,0,0,0,0,0,0,0,0,0,0,0,0,0,0,0,0,0,0],"id":43,"left_children":[1,3,5,7,9,11,-1,13,15,17,19,21,23,-1,-1,-1,-1,-1,-1,-1,-1,-1,-1,-1,-1],"loss_changes":[7.312455E1,7.674866E1,1.18653885E2,6.7073425E1,1.1719233E2,8.311127E1,0E0,9.97133E1,7.284155E1,9.364535E1,6.003836E1,6.1146904E1,1.4451252E1,0E0,0E0,0E0,0E0,0E0,0E0,0E0,0E0,0E0,0E0,0E0,0E0],"parents":[2147483647,0,0,1,1,2,2,3,3,4,4,5,5,7,7,8,8,9,9,10,10,11,11,12,12],"right_children":[2,4,6,8,10,12,-1,14,16,18,20,22,24,-1,-1,-1,-1,-1,-1,-1,-1,-1,-1,-1,-1],"split_conditions":[3.1E1,1.2820514E-1,3.45E-1,1.761658E-1,1.8781726E-1,1.3537118E-1,-2.7661657E-1,1.4285715E-1,7.305936E-2,1.8461539E-1,2.1925133E-1,1.2763158E0,1.6439348E-1,3.925657E-2,-3.4435213E-2,-1.15597956E-1,1.6999759E-1,-1.9552132E-2,1.1387032E-1,-1.2857193E-1,3.7317824E-2,6.2707864E-2,-5.3134035E-2,5.8146953E-3,-2.0107864E-1],"split_indices":[0,7,12,8,13,10,0,8,9,13,13,3,4,0,0,0,0,0,0,0,0,0,0,0,0],"split_type":[0,0,0,0,0,0,0,0,0,0,0,0,0,0,0,0,0,0,0,0,0,0,0,0,0],"sum_hessian":[5.92E2,4.69E2,1.23E2,1.98E2,2.71E2,1.21E2,2E0,1.85E2,1.3E1,2.31E2,4E1,1.17E2,4E0,1.05E2,8E1,2E0,1.1E1,2.18E2,1.3E1,3.4E1,6E0,1.05E2,1.2E1,1E0,3E0],"tree_param":{"num_deleted":"0","num_feature":"14","num_nodes":"25","size_leaf_vector":"1"}},{"base_weights":[1.4459845E-2,1.1896694E0,-8.654437E-2,-1.3034374E0,2.286849E0,-2.3763118E0,-8.615397E-3,-3.6459382E0,-1.201699E-1,4.764764E0,1.436458E0,-1.2230015E0,-3.6650743E0,-6.1261736E-2,3.9335701E0,-5.0606698E-2,-2.5322148E-1,9.5020235E-2,-7.731352E-2,5.5655148E-2,2.5637075E-1,1.3392241E-1,-6.035644E-2,-5.0624846E-3,-1.07045986E-1,-2.4847619E-1,8.275795E-3,-2.3549795E-1,-1.7213864E-3,2.244881E-1,1.4910507E-2],"categories":[],"categories_nodes":[],"categories_segments":[],"categories_sizes":[],"default_left":[0,0,0,0,0,0,0,0,0,0,0,0,0,0,0,0,0,0,0,0,0,0,0,0,0,0,0,0,0,0,0],"id":44,"left_children":[1,3,5,7,9,11,13,15,17,19,21,23,25,27,29,-1,-1,-1,-1,-1,-1,-1,-1,-1,-1,-1,-1,-1,-1,-1,-1],"loss_changes":[7.049273E1,1.3154391E2,9.758578E1,4.1138947E1,6.26931E1,2.2271782E1,1.1023805E2,1.355426E1,3.463551E1,4.886902E0,8.859926E1,1.1109673E1,4.0797028E1,6.520328E1,1.2814804E1,0E0,0E0,0E0,0E0,0E0,0E0,0E0,0E0,0E0,0E0,0E0,0E0,0E0,0E0,0E0,0E0],"parents":[2147483647,0,0,1,1,2,2,3,3,4,4,5,5,6,6,7,7,8,8,9,9,10,10,11,11,12,12,13,13,14,14],"right_children":[2,4,6,8,10,12,14,16,18,20,22,24,26,28,30,-1,-1,-1,-1,-1,-1,-1,-1,-1,-1,-1,-1,-1,-1,-1,-1],"split_conditions":[3.9007094E-2,2.4E1,4.278075E-2,1.0055866E-1,2.6E1,9.767442E-2,1.843318E-1,9.714286E-2,1.19170986E-1,2.3625E1,2.8899083E-1,1.3445379E-1,1.5075377E-1,4.4871796E-2,3.7E1,-5.0606698E-2,-2.5322148E-1,9.5020235E-2,-7.731352E-2,5.5655148E-2,2.5637075E-1,1.3392241E-1,-6.035644E-2,-5.0624846E-3,-1.07045986E-1,-2.4847619E-1,8.275795E-3,-2.3549795E-1,-1.7213864E-3,2.244881E-1,1.4910507E-2],"split_indices":[11,0,11,9,0,10,9,9,9,2,12,8,7,9,0,0,0,0,0,0,0,0,0,0,0,0,0,0,0,0,0],"split_type":[0,0,0,0,0,0,0,0,0,0,0,0,0,0,0,0,0,0,0,0,0,0,0,0,0,0,0,0,0,0,0],"sum_hessian":[5.92E2,4.6E1,5.46E2,1.4E1,3.2E1,1.7E1,5.29E2,4E0,1E1,7E0,2.5E1,1E1,7E0,5.23E2,6E0,2E0,2E0,4E0,6E0,1E0,6E0,1.7E1,8E0,5E0,5E0,5E0,2E0,2E0,5.21E2,5E0,1E0],"tree_param":{"num_deleted":"0","num_feature":"14","num_nodes":"31","size_leaf_vector":"1"}},{"base_weights":[1.3314973E-2,-2.9740086E-1,3.761462E-1,1.707946E0,-4.7313514E-1,-1.3666214E0,5.88011E-1,3.3690276E0,-1.8039892E0,-6.229336E-2,-1.3648314E0,1.6538904E0,-2.357816E0,9.195088E-1,-1.0361214E0,6.88514E-2,2.8434494E-1,9.032531E-2,-1.9551606E-1,-1.624105E-1,4.2534205E-3,-7.9036124E-2,1.9169627E-1,-7.8344665E-2,1.4943169E-1,6.830563E-2,-1.6068508E-1,-2.3871139E-3,6.760117E-2,-2.3341456E-1,-2.2095232E-3],"categories":[],"categories_nodes":[],"categories_segments":[],"categories_sizes":[],"default_left":[0,0,0,0,0,0,0,0,0,0,0,0,0,0,0,0,0,0,0,0,0,0,0,0,0,0,0,0,0,0,0],"id":45,"left_children":[1,3,5,7,9,11,13,15,17,19,21,23,25,27,29,-1,-1,-1,-1,-1,-1,-1,-1,-1,-1,-1,-1,-1,-1,-1,-1],"loss_changes":[6.696515E1,1.13578705E2,1.01972916E2,1.5775159E2,1.07987076E2,9.371701E1,1.3285983E2,7.5278564E1,7.550813E1,9.558122E1,1.1044034E2,3.907423E1,7.7697174E1,8.5407974E1,1.5111389E2,0E0,0E0,0E0,0E0,0E0,0E0,0E0,0E0,0E0,0E0,0E0,0E0,0E0,0E0,0E0,0E0],"parents":[2147483647,0,0,1,1,2,2,3,3,4,4,5,5,6,6,7,7,8,8,9,9,10,10,11,11,12,12,13,13,14,14],"right_children":[2,4,6,8,10,12,14,16,18,20,22,24,26,28,30,-1,-1,-1,-1,-1,-1,-1,-1,-1,-1,-1,-1,-1,-1,-1,-1],"split_conditions":[2.55E1,1.3425925E-1,1.3444804E-1,1.2135922E-1,1.15E-1,2.625E1,8.585858E-2,1.2653062E-1,2.2E1,1.0074627E-1,1.9711539E-1,8.675799E-2,7.978723E-2,1.2301587E-1,8.888889E-2,6.88514E-2,2.8434494E-1,9.032531E-2,-1.9551606E-1,-1.624105E-1,4.2534205E-3,-7.9036124E-2,1.9169627E-1,-7.8344665E-2,1.4943169E-1,6.830563E-2,-1.6068508E-1,-2.3871139E-3,6.760117E-2,-2.3341456E-1,-2.2095232E-3],"split_indices":[2,13,4,10,9,2,11,13,1,7,7,10,10,8,11,0,0,0,0,0,0,0,0,0,0,0,0,0,0,0,0],"split_type":[0,0,0,0,0,0,0,0,0,0,0,0,0,0,0,0,0,0,0,0,0,0,0,0,0,0,0,0,0,0,0],"sum_hessian":[5.92E2,3.19E2,2.73E2,2.5E1,2.94E2,2.9E1,2.44E2,1.7E1,8E0,2.02E2,9.2E1,7E0,2.2E1,2.03E2,4.1E1,1E1,7E0,3E0,5E0,8E0,1.94E2,8.9E1,3E0,2E0,5E0,4E0,1.8E1,6.3E1,1.4E2,8E0,3.3E1],"tree_param":{"num_deleted":"0","num_feature":"14","num_nodes":"31","size_leaf_vector":"1"}},{"base_weights":[1.2667786E-2,1.138706E0,-8.410819E-2,-1.2300423E0,2.1809034E0,-2.256852E0,-1.0158201E-2,-3.4931488E0,-8.9535624E-2,4.541375E0,1.3707235E0,-1.1756276E0,-3.4614289E0,-6.0311962E-2,3.7456603E0,-4.8950925E-2,-2.4214481E-1,9.124872E-2,-7.22126E-2,9.124743E-2,2.5713465E-1,1.2779894E-1,-5.760449E-2,-5.3352993E-3,-1.02430575E-1,-2.3538509E-1,9.246318E-3,-4.5141587E-3,1.9292581E-1,2.1421425E-1,1.2847758E-2],"categories":[],"categories_nodes":[],"categories_segments":[],"categories_sizes":[],"default_left":[0,0,0,0,0,0,0,0,0,0,0,0,0,0,0,0,0,0,0,0,0,0,0,0,0,0,0,0,0,0,0],"id":46,"left_children":[1,3,5,7,9,11,13,15,17,19,21,23,25,27,29,-1,-1,-1,-1,-1,-1,-1,-1,-1,-1,-1,-1,-1,-1,-1,-1],"loss_changes":[6.4717026E1,1.18711685E2,8.786596E1,3.8403564E1,5.6884445E1,1.9374168E1,1.0006117E2,1.2225922E1,3.1165522E1,3.6823273E0,8.068936E1,1.0046063E1,3.722541E1,6.189322E1,1.2052849E1,0E0,0E0,0E0,0E0,0E0,0E0,0E0,0E0,0E0,0E0,0E0,0E0,0E0,0E0,0E0,0E0],"parents":[2147483647,0,0,1,1,2,2,3,3,4,4,5,5,6,6,7,7,8,8,9,9,10,10,11,11,12,12,13,13,14,14],"right_children":[2,4,6,8,10,12,14,16,18,20,22,24,26,28,30,-1,-1,-1,-1,-1,-1,-1,-1,-1,-1,-1,-1,-1,-1,-1,-1],"split_conditions":[3.9007094E-2,2.4E1,4.278075E-2,1.0055866E-1,2.6E1,9.767442E-2,1.843318E-1,9.714286E-2,1.19170986E-1,1.3854979E-1,2.8899083E-1,1.3445379E-1,1.5075377E-1,1.14832535E-1,3.7E1,-4.8950925E-2,-2.4214481E-1,9.124872E-2,-7.22126E-2,9.124743E-2,2.5713465E-1,1.2779894E-1,-5.760449E-2,-5.3352993E-3,-1.02430575E-1,-2.3538509E-1,9.246318E-3,-4.5141587E-3,1.9292581E-1,2.1421425E-1,1.2847758E-2],"split_indices":[11,0,11,9,0,10,9,9,9,4,12,8,7,11,0,0,0,0,0,0,0,0,0,0,0,0,0,0,0,0,0],"split_type":[0,0,0,0,0,0,0,0,0,0,0,0,0,0,0,0,0,0,0,0,0,0,0,0,0,0,0,0,0,0,0],"sum_hessian":[5.92E2,4.6E1,5.46E2,1.4E1,3.2E1,1.7E1,5.29E2,4E0,1E1,7E0,2.5E1,1E1,7E0,5.23E2,6E0,2E0,2E0,4E0,6E0,2E0,5E0,1.7E1,8E0,5E0,5E0,5E0,2E0,5.2E2,3E0,5E0,1E0],"tree_param":{"num_deleted":"0","num_feature":"14","num_nodes":"31","size_leaf_vector":"1"}},{"base_weights":[1.2419455E-2,-2.2742389E-1,3.5550203E-2,2.4408129E-1,1.080695E-2,-1.0236908E-1,9.2475474E-1,1.9135354E-1,-6.6141807E-3,1.2650517E-2,1.03088796E-1],"categories":[],"categories_nodes":[],"categories_segments":[],"categories_sizes":[],"default_left":[0,0,0,0,0,0,0,0,0,0,0],"id":47,"left_children":[1,-1,3,-1,5,7,9,-1,-1,-1,-1],"loss_changes":[6.27214E1,0E0,7.0812675E1,0E0,6.1019047E1,6.2218636E1,4.912455E1,0E0,0E0,0E0,0E0],"parents":[2147483647,0,0,2,2,4,4,5,5,6,6],"right_children":[2,-1,4,-1,6,8,10,-1,-1,-1,-1],"split_conditions":[4.4871796E-2,-2.2742389E-1,4.6692606E-2,2.4408129E-1,1E0,1.9E1,1.742437E-1,1.9135354E-1,-6.6141807E-3,1.2650517E-2,1.03088796E-1],"split_indices":[9,0,9,0,6,1,4,0,0,0,0],"split_type":[0,0,0,0,0,0,0,0,0,0,0],"sum_hessian":[5.92E2,2E0,5.9E2,2E0,5.88E2,5.24E2,6.4E1,3E0,5.21E2,4.1E1,2.3E1],"tree_param":{"num_deleted":"0","num_feature":"14","num_nodes":"11","size_leaf_vector":"1"}},{"base_weights":[1.2333695E-2,-2.1984307E-1,3.4694526E-2,2.3594522E-1,1.0777167E-2,-1.4960633E-1,6.259304E-1,1.4802493E-2,-2.3875868E-2,3.8453538E-2,-2.6541623E-1],"categories":[],"categories_nodes":[],"categories_segments":[],"categories_sizes":[],"default_left":[0,0,0,0,0,0,0,0,0,0,0],"id":48,"left_children":[1,-1,3,-1,5,7,9,-1,-1,-1,-1],"loss_changes":[5.861836E1,0E0,6.6161194E1,0E0,5.8204643E1,6.853282E1,1.0771304E2,0E0,0E0,0E0,0E0],"parents":[2147483647,0,0,2,2,4,4,5,5,6,6],"right_children":[2,-1,4,-1,6,8,10,-1,-1,-1,-1],"split_conditions":[4.4871796E-2,-2.1984307E-1,4.6692606E-2,2.3594522E-1,3.1E1,1.2820514E-1,3.45E-1,1.4802493E-2,-2.3875868E-2,3.8453538E-2,-2.6541623E-1],"split_indices":[9,0,9,0,0,7,12,0,0,0,0],"split_type":[0,0,0,0,0,0,0,0,0,0,0],"sum_hessian":[5.92E2,2E0,5.9E2,2E0,5.88E2,4.67E2,1.21E2,1.98E2,2.69E2,1.19E2,2E0],"tree_param":{"num_deleted":"0","num_feature":"14","num_nodes":"11","size_leaf_vector":"1"}},{"base_weights":[1.1346078E-2,1.053626E0,-7.82307E-2,-1.17627E0,2.035287E0,-2.166102E0,-7.1742614E-3,-3.3677895E0,-7.319121E-2,4.3539085E0,1.2435846E0,-4.6824804E-1,-2.7831037E0,-5.4803934E-2,3.559272E0,-4.6947543E-2,-2.3370159E-1,8.80448E-2,-6.863988E-2,5.4720785E-2,2.3316026E-1,1.1821727E-1,-5.6805637E-2,4.6725336E-2,-7.016261E-2,-1.7579336E-1,-1.2770939E-2,-1.1439981E-2,2.9003618E-2,2.4029362E-1,7.114267E-2],"categories":[],"categories_nodes":[],"categories_segments":[],"categories_sizes":[],"default_left":[0,0,0,0,0,0,0,0,0,0,0,0,0,0,0,0,0,0,0,0,0,0,0,0,0,0,0,0,0,0,0],"id":49,"left_children":[1,3,5,7,9,11,13,15,17,19,21,23,25,27,29,-1,-1,-1,-1,-1,-1,-1,-1,-1,-1,-1,-1,-1,-1,-1,-1],"loss_changes":[5.544732E1,1.05277145E2,8.113558E1,3.6014786E1,5.5162262E1,1.755323E1,9.022546E1,1.1474571E1,2.8636858E1,2.9617157E0,7.203001E1,9.180838E0,2.318052E1,5.8016766E1,1.1804771E1,0E0,0E0,0E0,0E0,0E0,0E0,0E0,0E0,0E0,0E0,0E0,0E0,0E0,0E0,0E0,0E0],"parents":[2147483647,0,0,1,1,2,2,3,3,4,4,5,5,6,6,7,7,8,8,9,9,10,10,11,11,12,12,13,13,14,14],"right_children":[2,4,6,8,10,12,14,16,18,20,22,24,26,28,30,-1,-1,-1,-1,-1,-1,-1,-1,-1,-1,-1,-1,-1,-1,-1,-1],"split_conditions":[3.9007094E-2,2.4E1,4.278075E-2,1.0055866E-1,2.6E1,3.1551626E-1,1.843318E-1,9.714286E-2,1.19170986E-1,2.3625E1,2.8899083E-1,9.716981E-1,3.3E1,3.661567E-1,1.0614035E0,-4.6947543E-2,-2.3370159E-1,8.80448E-2,-6.863988E-2,5.4720785E-2,2.3316026E-1,1.1821727E-1,-5.6805637E-2,4.6725336E-2,-7.016261E-2,-1.7579336E-1,-1.2770939E-2,-1.1439981E-2,2.9003618E-2,2.4029362E-1,7.114267E-2],"split_indices":[11,0,11,9,0,5,9,9,9,2,12,3,0,5,3,0,0,0,0,0,0,0,0,0,0,0,0,0,0,0,0],"split_type":[0,0,0,0,0,0,0,0,0,0,0,0,0,0,0,0,0,0,0,0,0,0,0,0,0,0,0,0,0,0,0],"sum_hessian":[5.92E2,4.6E1,5.46E2,1.4E1,3.2E1,1.7E1,5.29E2,4E0,1E1,7E0,2.5E1,5E0,1.2E1,5.23E2,6E0,2E0,2E0,4E0,6E0,1E0,6E0,1.7E1,8E0,2E0,3E0,9E0,3E0,4.11E2,1.12E2,3E0,3E0],"tree_param":{"num_deleted":"0","num_feature":"14","num_nodes":"31","size_leaf_vector":"1"}},{"base_weights":[1.1124834E-2,-2.1213363E-1,3.2698892E-2,2.2846174E-1,9.53708E-3,3.6902628E0,-1.5603603E-2,2.638853E-1,-2.6801635E-2,-1.5645236E-2,1.6556123E-2],"categories":[],"categories_nodes":[],"categories_segments":[],"categories_sizes":[],"default_left":[0,0,0,0,0,0,0,0,0,0,0],"id":50,"left_children":[1,-1,3,-1,5,7,9,-1,-1,-1,-1],"loss_changes":[5.455933E1,0E0,6.205539E1,0E0,5.4561256E1,2.9665028E1,6.050969E1,0E0,0E0,0E0,0E0],"parents":[2147483647,0,0,2,2,4,4,5,5,6,6],"right_children":[2,-1,4,-1,6,8,10,-1,-1,-1,-1],"split_conditions":[4.4871796E-2,-2.1213363E-1,4.6692606E-2,2.2846174E-1,1.9E1,2.3285715E1,2.5428572E1,2.638853E-1,-2.6801635E-2,-1.5645236E-2,1.6556123E-2],"split_indices":[9,0,9,0,1,2,2,0,0,0,0],"split_type":[0,0,0,0,0,0,0,0,0,0,0],"sum_hessian":[5.92E2,2E0,5.9E2,2E0,5.88E2,3E0,5.85E2,2E0,1E0,3.15E2,2.7E2],"tree_param":{"num_deleted":"0","num_feature":"14","num_nodes":"11","size_leaf_vector":"1"}},{"base_weights":[1.0998011E-2,1.00739464E-1,-9.6560895E-1,6.546503E-1,-1.4636333E-1,5.0511634E-1,-3.3917985E0,2.8375584E-1,3.237399E0,-7.167167E-1,4.494451E-1,-2.3178113E0,1.3882486E0,3.6262208E-1,-4.417152E0,-4.295317E-3,1.0529649E-1,6.462697E-3,2.2360201E-1,-1.3950284E-2,-1.3423489E-1,4.0145252E-2,-1.1745711E-1,1.2102677E-1,-2.1503413E-1,-2.8451612E-2,1.6193704E-1,1.448618E-1,-1.1464329E-1,5.600071E-3,-2.3743318E-1],"categories":[],"categories_nodes":[],"categories_segments":[],"categories_sizes":[],"default_left":[0,0,0,0,0,0,0,0,0,0,0,0,0,0,0,0,0,0,0,0,0,0,0,0,0,0,0,0,0,0,0],"id":51,"left_children":[1,3,5,7,9,11,13,15,17,19,21,23,25,27,29,-1,-1,-1,-1,-1,-1,-1,-1,-1,-1,-1,-1,-1,-1,-1,-1],"loss_changes":[5.2069057E1,7.455468E1,1.8012619E2,1.6001314E2,1.2843477E2,8.2994286E1,7.474431E1,9.987206E1,8.00083E1,1.6550247E2,1.84886E2,8.55742E1,9.239128E1,4.0296154E1,2.3053833E1,0E0,0E0,0E0,0E0,0E0,0E0,0E0,0E0,0E0,0E0,0E0,0E0,0E0,0E0,0E0,0E0],"parents":[2147483647,0,0,1,1,2,2,3,3,4,4,5,5,6,6,7,7,8,8,9,9,10,10,11,11,12,12,13,13,14,14],"right_children":[2,4,6,8,10,12,14,16,18,20,22,24,26,28,30,-1,-1,-1,-1,-1,-1,-1,-1,-1,-1,-1,-1,-1,-1,-1,-1],"split_conditions":[1.2987013E-1,5.4347824E-2,2.6E1,5.2884616E-2,1.736629E-1,5.319149E-2,1E-1,1.5311004E-1,3.1478554E-1,1.5277778E-1,3.188406E-1,9.369369E-1,1.5669543E-1,2.675E1,6.726457E-2,-4.295317E-3,1.0529649E-1,6.462697E-3,2.2360201E-1,-1.3950284E-2,-1.3423489E-1,4.0145252E-2,-1.1745711E-1,1.2102677E-1,-2.1503413E-1,-2.8451612E-2,1.6193704E-1,1.448618E-1,-1.1464329E-1,5.600071E-3,-2.3743318E-1],"split_indices":[10,11,0,11,4,11,8,7,5,8,12,3,4,1,9,0,0,0,0,0,0,0,0,0,0,0,0,0,0,0,0],"split_type":[0,0,0,0,0,0,0,0,0,0,0,0,0,0,0,0,0,0,0,0,0,0,0,0,0,0,0,0,0,0,0],"sum_hessian":[5.92E2,5.43E2,4.9E1,1.67E2,3.76E2,3.1E1,1.8E1,1.47E2,2E1,1.92E2,1.84E2,7E0,2.4E1,4E0,1.4E1,1.23E2,2.4E1,6E0,1.4E1,1.58E2,3.4E1,1.64E2,2E1,2E0,5E0,1.2E1,1.2E1,2E0,2E0,1E0,1.3E1],"tree_param":{"num_deleted":"0","num_feature":"14","num_nodes":"31","size_leaf_vector":"1"}},{"base_weights":[1.0352532E-2,-2.03774E-1,3.1075282E-2,4.390163E0,8.82004E-3,2.6273105E-1,6.653118E-2,-7.5126374E-1,1.2459682E-1,-8.855976E-3,-1.203713E-1,3.248762E-2,-6.574613E-3],"categories":[],"categories_nodes":[],"categories_segments":[],"categories_sizes":[],"default_left":[0,0,0,0,0,0,0,0,0,0,0,0,0],"id":52,"left_children":[1,-1,3,5,7,-1,-1,9,11,-1,-1,-1,-1],"loss_changes":[5.0335773E1,0E0,5.7295692E1,9.4260406E-1,5.192564E1,0E0,0E0,7.374191E1,6.894258E1,0E0,0E0,0E0,0E0],"parents":[2147483647,0,0,2,2,3,3,4,4,7,7,8,8],"right_children":[2,-1,4,6,8,-1,-1,10,12,-1,-1,-1,-1],"split_conditions":[4.4871796E-2,-2.03774E-1,4.6692606E-2,3.1E1,3.0347756E-1,2.6273105E-1,6.653118E-2,2.9815102E-1,3.2702816E-1,-8.855976E-3,-1.203713E-1,3.248762E-2,-6.574613E-3],"split_indices":[9,0,9,0,5,0,0,5,5,0,0,0,0],"split_type":[0,0,0,0,0,0,0,0,0,0,0,0,0],"sum_hessian":[5.92E2,2E0,5.9E2,2E0,5.88E2,1E0,1E0,7.7E1,5.11E2,5.8E1,1.9E1,1.67E2,3.44E2],"tree_param":{"num_deleted":"0","num_feature":"14","num_nodes":"13","size_leaf_vector":"1"}},{"base_weights":[9.872198E-3,-1.4137859E-2,3.5488877E0,9.848094E-1,-1.0041797E-1,3.5034608E-2,2.1323612E-1,-1.1269842E0,1.9148729E0,-2.0788815E0,-3.2651823E-2,-1.603211E-1,-3.966609E-3,2.0563392E-1,5.82488E-2,-5.349044E-2,-1.6032483E-1,-3.9295014E-3,1.695564E-1],"categories":[],"categories_nodes":[],"categories_segments":[],"categories_sizes":[],"default_left":[0,0,0,0,0,0,0,0,0,0,0,0,0,0,0,0,0,0,0],"id":53,"left_children":[1,3,5,7,9,-1,-1,11,13,15,17,-1,-1,-1,-1,-1,-1,-1,-1],"loss_changes":[5.0438553E1,5.0950573E1,5.1670876E0,9.4470825E1,7.286776E1,0E0,0E0,3.242354E1,4.9597054E1,1.7050888E1,8.3154274E1,0E0,0E0,0E0,0E0,0E0,0E0,0E0,0E0],"parents":[2147483647,0,0,1,1,2,2,3,3,4,4,7,7,8,8,9,9,10,10],"right_children":[2,4,6,8,10,-1,-1,12,14,16,18,-1,-1,-1,-1,-1,-1,-1,-1],"split_conditions":[2.7359906E-1,3.9007094E-2,2.975E1,2.4E1,4.278075E-2,3.5034608E-2,2.1323612E-1,1.0055866E-1,2.6E1,9.767442E-2,1.843318E-1,-1.603211E-1,-3.966609E-3,2.0563392E-1,5.82488E-2,-5.349044E-2,-1.6032483E-1,-3.9295014E-3,1.695564E-1],"split_indices":[4,11,1,0,11,0,0,9,0,10,9,0,0,0,0,0,0,0,0],"split_type":[0,0,0,0,0,0,0,0,0,0,0,0,0,0,0,0,0,0,0],"sum_hessian":[5.92E2,5.89E2,3E0,4.6E1,5.43E2,1E0,2E0,1.4E1,3.2E1,1.7E1,5.26E2,4E0,1E1,7E0,2.5E1,1E1,7E0,5.2E2,6E0],"tree_param":{"num_deleted":"0","num_feature":"14","num_nodes":"19","size_leaf_vector":"1"}},{"base_weights":[9.883595E-3,3.523973E0,-1.3957492E-2,2.5194502E-1,-2.552023E-2,-3.8765255E-1,2.141669E-1,-8.776418E-1,9.3605053E-1,-5.2825713E-1,5.2987415E-1,-9.082964E-2,-3.2989897E-3,-5.6878027E-2,8.81536E-2,-2.0605854E-3,-1.4293896E-1,3.0140415E-2,-1.6405773E-1],"categories":[],"categories_nodes":[],"categories_segments":[],"categories_sizes":[],"default_left":[0,0,0,0,0,0,0,0,0,0,0,0,0,0,0,0,0,0,0],"id":54,"left_children":[1,3,5,-1,-1,7,9,11,13,15,17,-1,-1,-1,-1,-1,-1,-1,-1],"loss_changes":[4.9730556E1,2.7019032E1,5.037991E1,0E0,0E0,1.4610797E2,8.6300545E1,1.2486632E2,1.06615776E2,1.24739876E2,7.369006E1,0E0,0E0,0E0,0E0,0E0,0E0,0E0,0E0],"parents":[2147483647,0,0,1,1,2,2,5,5,6,6,7,7,8,8,9,9,10,10],"right_children":[2,4,6,-1,-1,8,10,12,14,16,18,-1,-1,-1,-1,-1,-1,-1,-1],"split_conditions":[1.9E1,2.3285715E1,2.4375E1,2.5194502E-1,-2.552023E-2,1.521739E-1,1.4994596E-1,9.74359E-2,2.4644549E-1,2.9E1,1.396648E-1,-9.082964E-2,-3.2989897E-3,-5.6878027E-2,8.81536E-2,-2.0605854E-3,-1.4293896E-1,3.0140415E-2,-1.6405773E-1],"split_indices":[1,2,2,0,0,7,4,10,12,2,10,0,0,0,0,0,0,0,0],"split_type":[0,0,0,0,0,0,0,0,0,0,0,0,0,0,0,0,0,0,0],"sum_hessian":[5.92E2,3E0,5.89E2,2E0,1E0,2.23E2,3.66E2,1.63E2,6E1,1.09E2,2.57E2,7.5E1,8.8E1,1.7E1,4.3E1,9.1E1,1.8E1,2.53E2,4E0],"tree_param":{"num_deleted":"0","num_feature":"14","num_nodes":"19","size_leaf_vector":"1"}},{"base_weights":[9.195087E-3,-1.9785525E-1,2.9313032E-2,4.262934E0,7.699827E-3,2.5550747E-1,6.421261E-2,-1.55433845E-2,3.4109054E0,1.3803484E-2,-1.5504963E-2,3.3405256E-2,2.0512353E-1],"categories":[],"categories_nodes":[],"categories_segments":[],"categories_sizes":[],"default_left":[0,0,0,0,0,0,0,0,0,0,0,0,0],"id":55,"left_children":[1,-1,3,5,7,-1,-1,9,11,-1,-1,-1,-1],"loss_changes":[4.7433723E1,0E0,5.4044926E1,1.0080338E0,4.6643757E1,0E0,0E0,5.042086E1,4.8464165E0,0E0,0E0,0E0,0E0],"parents":[2147483647,0,0,2,2,3,3,4,4,7,7,8,8],"right_children":[2,-1,4,6,8,-1,-1,10,12,-1,-1,-1,-1],"split_conditions":[4.4871796E-2,-1.9785525E-1,4.6692606E-2,3.1E1,2.7359906E-1,2.5550747E-1,6.421261E-2,6.435644E-2,2.975E1,1.3803484E-2,-1.5504963E-2,3.3405256E-2,2.0512353E-1],"split_indices":[9,0,9,0,4,0,0,11,1,0,0,0,0],"split_type":[0,0,0,0,0,0,0,0,0,0,0,0,0],"sum_hessian":[5.92E2,2E0,5.9E2,2E0,5.88E2,1E0,1E0,5.85E2,3E0,2.94E2,2.91E2,1E0,2E0],"tree_param":{"num_deleted":"0","num_feature":"14","num_nodes":"13","size_leaf_vector":"1"}},{"base_weights":[9.34009E-3,3.4013548E0,-1.3672451E-2,2.435752E-1,-2.5227308E-2,-1.1348764E-1,7.942731E-1,-2.58003E-2,-1.2716851E0,4.4771197E-1,2.655588E0,-1.284827E-2,2.2629188E-2,-1.4239393E-1,3.2418706E-3,1.2174179E-1,7.696964E-4,1.8080798E-1,4.858923E-2],"categories":[],"categories_nodes":[],"categories_segments":[],"categories_sizes":[],"default_left":[0,0,0,0,0,0,0,0,0,0,0,0,0,0,0,0,0,0,0],"id":56,"left_children":[1,3,5,-1,-1,7,9,11,13,15,17,-1,-1,-1,-1,-1,-1,-1,-1],"loss_changes":[4.633542E1,2.5426922E1,4.7670826E1,0E0,0E0,5.338736E1,4.0739914E1,5.430329E1,7.812953E1,4.807041E1,1.2660011E1,0E0,0E0,0E0,0E0,0E0,0E0,0E0,0E0],"parents":[2147483647,0,0,1,1,2,2,5,5,6,6,7,7,8,8,9,9,10,10],"right_children":[2,4,6,-1,-1,8,10,12,14,16,18,-1,-1,-1,-1,-1,-1,-1,-1],"split_conditions":[1.9E1,2.3285715E1,1E0,2.435752E-1,-2.5227308E-2,1.2282609E0,2.0124894E-1,3.5201287E-1,1.5970096E-1,2.5E1,8.520179E-2,-1.284827E-2,2.2629188E-2,-1.4239393E-1,3.2418706E-3,1.2174179E-1,7.696964E-4,1.8080798E-1,4.858923E-2],"split_indices":[1,2,6,0,0,3,4,5,4,0,10,0,0,0,0,0,0,0,0],"split_type":[0,0,0,0,0,0,0,0,0,0,0,0,0,0,0,0,0,0,0],"sum_hessian":[5.92E2,3E0,5.89E2,2E0,1E0,5.25E2,6.4E1,4.89E2,3.6E1,5.5E1,9E0,3.3E2,1.59E2,1.6E1,2E1,9E0,4.6E1,5E0,4E0],"tree_param":{"num_deleted":"0","num_feature":"14","num_nodes":"19","size_leaf_vector":"1"}},{"base_weights":[9.616354E-3,-1.3268077E-2,3.3826656E0,1.4139097E-2,-2.6903257E-1,5.9217073E-2,2.4944095E-1,9.4618577E-1,-8.381353E-2,-5.623747E-2,1.0200188E-1,2.1272918E-2,-2.0811817E-2],"categories":[],"categories_nodes":[],"categories_segments":[],"categories_sizes":[],"default_left":[0,0,0,0,0,0,0,0,0,0,0,0,0],"id":57,"left_children":[1,3,5,7,-1,-1,-1,9,11,-1,-1,-1,-1],"loss_changes":[4.5818737E1,8.6867905E1,8.21492E0,5.37616E1,0E0,0E0,0E0,1.2915112E2,9.041057E1,0E0,0E0,0E0,0E0],"parents":[2147483647,0,0,1,1,2,2,3,3,7,7,8,8],"right_children":[2,4,6,8,-1,-1,-1,10,12,-1,-1,-1,-1],"split_conditions":[1.14832535E-1,1.1004785E-1,2.4E1,1.3483146E-1,-2.6903257E-1,5.9217073E-2,2.4944095E-1,1.3391462E-1,1.2376238E-1,-5.623747E-2,1.0200188E-1,2.1272918E-2,-2.0811817E-2],"split_indices":[11,11,0,13,0,0,0,4,7,0,0,0,0],"split_type":[0,0,0,0,0,0,0,0,0,0,0,0,0],"sum_hessian":[5.92E2,5.89E2,3E0,5.87E2,2E0,2E0,1E0,5.5E1,5.32E2,1.9E1,3.6E1,2.1E2,3.22E2],"tree_param":{"num_deleted":"0","num_feature":"14","num_nodes":"13",